{"learner":{"attributes":{"best_iteration":"311","best_score":"1.5785574612903397","model_name":"M0-Plus","run_fingerprint":"28bd244cfc639cf30a15b930d65e50a2f6dd22297257620deb6008a0bc418e4b","selected_num_boost_round":"312"},"feature_names":[],"feature_types":[],"gradient_booster":{"model":{"cats":{"enc":[],"feature_segments":[],"sorted_idx":[]},"gbtree_model_param":{"num_parallel_tree":"1","num_trees":"1710"},"iteration_indptr":[0,5,10,15,20,25,30,35,40,45,50,55,60,65,70,75,80,85,90,95,100,105,110,115,120,125,130,135,140,145,150,155,160,165,170,175,180,185,190,195,200,205,210,215,220,225,230,235,240,245,250,255,260,265,270,275,280,285,290,295,300,305,310,315,320,325,330,335,340,345,350,355,360,365,370,375,380,385,390,395,400,405,410,415,420,425,430,435,440,445,450,455,460,465,470,475,480,485,490,495,500,505,510,515,520,525,530,535,540,545,550,555,560,565,570,575,580,585,590,595,600,605,610,615,620,625,630,635,640,645,650,655,660,665,670,675,680,685,690,695,700,705,710,715,720,725,730,735,740,745,750,755,760,765,770,775,780,785,790,795,800,805,810,815,820,825,830,835,840,845,850,855,860,865,870,875,880,885,890,895,900,905,910,915,920,925,930,935,940,945,950,955,960,965,970,975,980,985,990,995,1000,1005,1010,1015,1020,1025,1030,1035,1040,1045,1050,1055,1060,1065,1070,1075,1080,1085,1090,1095,1100,1105,1110,1115,1120,1125,1130,1135,1140,1145,1150,1155,1160,1165,1170,1175,1180,1185,1190,1195,1200,1205,1210,1215,1220,1225,1230,1235,1240,1245,1250,1255,1260,1265,1270,1275,1280,1285,1290,1295,1300,1305,1310,1315,1320,1325,1330,1335,1340,1345,1350,1355,1360,1365,1370,1375,1380,1385,1390,1395,1400,1405,1410,1415,1420,1425,1430,1435,1440,1445,1450,1455,1460,1465,1470,1475,1480,1485,1490,1495,1500,1505,1510,1515,1520,1525,1530,1535,1540,1545,1550,1555,1560,1565,1570,1575,1580,1585,1590,1595,1600,1605,1610,1615,1620,1625,1630,1635,1640,1645,1650,1655,1660,1665,1670,1675,1680,1685,1690,1695,1700,1705,1710],"tree_info":[0,1,2,3,4,0,1,2,3,4,0,1,2,3,4,0,1,2,3,4,0,1,2,3,4,0,1,2,3,4,0,1,2,3,4,0,1,2,3,4,0,1,2,3,4,0,1,2,3,4,0,1,2,3,4,0,1,2,3,4,0,1,2,3,4,0,1,2,3,4,0,1,2,3,4,0,1,2,3,4,0,1,2,3,4,0,1,2,3,4,0,1,2,3,4,0,1,2,3,4,0,1,2,3,4,0,1,2,3,4,0,1,2,3,4,0,1,2,3,4,0,1,2,3,4,0,1,2,3,4,0,1,2,3,4,0,1,2,3,4,0,1,2,3,4,0,1,2,3,4,0,1,2,3,4,0,1,2,3,4,0,1,2,3,4,0,1,2,3,4,0,1,2,3,4,0,1,2,3,4,0,1,2,3,4,0,1,2,3,4,0,1,2,3,4,0,1,2,3,4,0,1,2,3,4,0,1,2,3,4,0,1,2,3,4,0,1,2,3,4,0,1,2,3,4,0,1,2,3,4,0,1,2,3,4,0,1,2,3,4,0,1,2,3,4,0,1,2,3,4,0,1,2,3,4,0,1,2,3,4,0,1,2,3,4,0,1,2,3,4,0,1,2,3,4,0,1,2,3,4,0,1,2,3,4,0,1,2,3,4,0,1,2,3,4,0,1,2,3,4,0,1,2,3,4,0,1,2,3,4,0,1,2,3,4,0,1,2,3,4,0,1,2,3,4,0,1,2,3,4,0,1,2,3,4,0,1,2,3,4,0,1,2,3,4,0,1,2,3,4,0,1,2,3,4,0,1,2,3,4,0,1,2,3,4,0,1,2,3,4,0,1,2,3,4,0,1,2,3,4,0,1,2,3,4,0,1,2,3,4,0,1,2,3,4,0,1,2,3,4,0,1,2,3,4,0,1,2,3,4,0,1,2,3,4,0,1,2,3,4,0,1,2,3,4,0,1,2,3,4,0,1,2,3,4,0,1,2,3,4,0,1,2,3,4,0,1,2,3,4,0,1,2,3,4,0,1,2,3,4,0,1,2,3,4,0,1,2,3,4,0,1,2,3,4,0,1,2,3,4,0,1,2,3,4,0,1,2,3,4,0,1,2,3,4,0,1,2,3,4,0,1,2,3,4,0,1,2,3,4,0,1,2,3,4,0,1,2,3,4,0,1,2,3,4,0,1,2,3,4,0,1,2,3,4,0,1,2,3,4,0,1,2,3,4,0,1,2,3,4,0,1,2,3,4,0,1,2,3,4,0,1,2,3,4,0,1,2,3,4,0,1,2,3,4,0,1,2,3,4,0,1,2,3,4,0,1,2,3,4,0,1,2,3,4,0,1,2,3,4,0,1,2,3,4,0,1,2,3,4,0,1,2,3,4,0,1,2,3,4,0,1,2,3,4,0,1,2,3,4,0,1,2,3,4,0,1,2,3,4,0,1,2,3,4,0,1,2,3,4,0,1,2,3,4,0,1,2,3,4,0,1,2,3,4,0,1,2,3,4,0,1,2,3,4,0,1,2,3,4,0,1,2,3,4,0,1,2,3,4,0,1,2,3,4,0,1,2,3,4,0,1,2,3,4,0,1,2,3,4,0,1,2,3,4,0,1,2,3,4,0,1,2,3,4,0,1,2,3,4,0,1,2,3,4,0,1,2,3,4,0,1,2,3,4,0,1,2,3,4,0,1,2,3,4,0,1,2,3,4,0,1,2,3,4,0,1,2,3,4,0,1,2,3,4,0,1,2,3,4,0,1,2,3,4,0,1,2,3,4,0,1,2,3,4,0,1,2,3,4,0,1,2,3,4,0,1,2,3,4,0,1,2,3,4,0,1,2,3,4,0,1,2,3,4,0,1,2,3,4,0,1,2,3,4,0,1,2,3,4,0,1,2,3,4,0,1,2,3,4,0,1,2,3,4,0,1,2,3,4,0,1,2,3,4,0,1,2,3,4,0,1,2,3,4,0,1,2,3,4,0,1,2,3,4,0,1,2,3,4,0,1,2,3,4,0,1,2,3,4,0,1,2,3,4,0,1,2,3,4,0,1,2,3,4,0,1,2,3,4,0,1,2,3,4,0,1,2,3,4,0,1,2,3,4,0,1,2,3,4,0,1,2,3,4,0,1,2,3,4,0,1,2,3,4,0,1,2,3,4,0,1,2,3,4,0,1,2,3,4,0,1,2,3,4,0,1,2,3,4,0,1,2,3,4,0,1,2,3,4,0,1,2,3,4,0,1,2,3,4,0,1,2,3,4,0,1,2,3,4,0,1,2,3,4,0,1,2,3,4,0,1,2,3,4,0,1,2,3,4,0,1,2,3,4,0,1,2,3,4,0,1,2,3,4,0,1,2,3,4,0,1,2,3,4,0,1,2,3,4,0,1,2,3,4,0,1,2,3,4,0,1,2,3,4,0,1,2,3,4,0,1,2,3,4,0,1,2,3,4,0,1,2,3,4,0,1,2,3,4,0,1,2,3,4,0,1,2,3,4,0,1,2,3,4,0,1,2,3,4,0,1,2,3,4,0,1,2,3,4,0,1,2,3,4,0,1,2,3,4,0,1,2,3,4,0,1,2,3,4,0,1,2,3,4,0,1,2,3,4,0,1,2,3,4,0,1,2,3,4,0,1,2,3,4,0,1,2,3,4,0,1,2,3,4,0,1,2,3,4,0,1,2,3,4,0,1,2,3,4,0,1,2,3,4,0,1,2,3,4,0,1,2,3,4,0,1,2,3,4,0,1,2,3,4,0,1,2,3,4,0,1,2,3,4,0,1,2,3,4,0,1,2,3,4,0,1,2,3,4,0,1,2,3,4,0,1,2,3,4,0,1,2,3,4,0,1,2,3,4,0,1,2,3,4,0,1,2,3,4,0,1,2,3,4,0,1,2,3,4,0,1,2,3,4,0,1,2,3,4,0,1,2,3,4,0,1,2,3,4,0,1,2,3,4,0,1,2,3,4,0,1,2,3,4,0,1,2,3,4,0,1,2,3,4,0,1,2,3,4,0,1,2,3,4,0,1,2,3,4,0,1,2,3,4,0,1,2,3,4,0,1,2,3,4,0,1,2,3,4,0,1,2,3,4,0,1,2,3,4,0,1,2,3,4,0,1,2,3,4,0,1,2,3,4,0,1,2,3,4,0,1,2,3,4,0,1,2,3,4,0,1,2,3,4,0,1,2,3,4,0,1,2,3,4,0,1,2,3,4,0,1,2,3,4,0,1,2,3,4,0,1,2,3,4,0,1,2,3,4,0,1,2,3,4,0,1,2,3,4,0,1,2,3,4,0,1,2,3,4,0,1,2,3,4,0,1,2,3,4,0,1,2,3,4,0,1,2,3,4,0,1,2,3,4,0,1,2,3,4,0,1,2,3,4,0,1,2,3,4,0,1,2,3,4,0,1,2,3,4,0,1,2,3,4,0,1,2,3,4,0,1,2,3,4,0,1,2,3,4,0,1,2,3,4,0,1,2,3,4,0,1,2,3,4,0,1,2,3,4,0,1,2,3,4,0,1,2,3,4,0,1,2,3,4,0,1,2,3,4,0,1,2,3,4,0,1,2,3,4,0,1,2,3,4,0,1,2,3,4,0,1,2,3,4,0,1,2,3,4,0,1,2,3,4,0,1,2,3,4,0,1,2,3,4,0,1,2,3,4,0,1,2,3,4,0,1,2,3,4,0,1,2,3,4,0,1,2,3,4,0,1,2,3,4,0,1,2,3,4,0,1,2,3,4,0,1,2,3,4,0,1,2,3,4,0,1,2,3,4,0,1,2,3,4,0,1,2,3,4,0,1,2,3,4,0,1,2,3,4,0,1,2,3,4,0,1,2,3,4],"trees":[{"base_weights":[-2.8420312E-4,-1.4073345E-1,2.2646745E-1,-2.003914E-1,-4.0788434E-2,1.3457589E-1,3.3472794E-1,-2.3671913E-1,-1.6029812E-1,-7.6586E-2,1.468312E-3,9.932819E-2,2.359849E-1,2.8119522E-1,4.540282E-1,-3.8085226E-2,-2.2777895E-2,-9.508467E-3,-1.7255096E-2,-8.247693E-3,2.5350512E-3,-9.197507E-4,9.606181E-3,7.297647E-3,1.4998229E-2,1.541328E-2,2.6808662E-2,2.1569248E-2,3.2017108E-2,4.26754E-2,5.6051165E-2],"categories":[],"categories_nodes":[],"categories_segments":[],"categories_sizes":[],"default_left":[0,0,0,0,0,0,0,0,0,0,0,0,0,0,0,0,0,0,0,0,0,0,0,0,0,0,0,0,0,0,0],"id":0,"left_children":[1,3,5,7,9,11,13,15,17,19,21,23,25,27,29,-1,-1,-1,-1,-1,-1,-1,-1,-1,-1,-1,-1,-1,-1,-1,-1],"loss_changes":[8.1933955E3,9.472539E2,9.7889307E2,1.448623E2,8.983123E1,1.9023352E2,2.8839453E2,6.716626E1,3.7774536E1,1.9308014E1,2.7480139E1,5.271466E1,3.6030457E1,7.955127E1,4.0395752E1,0E0,0E0,0E0,0E0,0E0,0E0,0E0,0E0,0E0,0E0,0E0,0E0,0E0,0E0,0E0,0E0],"parents":[2147483647,0,0,1,1,2,2,3,3,4,4,5,5,6,6,7,7,8,8,9,9,10,10,11,11,12,12,13,13,14,14],"right_children":[2,4,6,8,10,12,14,16,18,20,22,24,26,28,30,-1,-1,-1,-1,-1,-1,-1,-1,-1,-1,-1,-1,-1,-1,-1,-1],"split_conditions":[2.579592E-1,-3.4169033E-1,9.254898E-1,-8.409953E-1,-2.022054E-2,9.822938E-1,1.6773022E0,2.00001E0,-9.388104E-1,7.943132E-1,8.951507E-1,6.283402E-1,5.166756E-1,2.804647E-1,2.0816188E0,-3.8085226E-2,-2.2777895E-2,-9.508467E-3,-1.7255096E-2,-8.247693E-3,2.5350512E-3,-9.197507E-4,9.606181E-3,7.297647E-3,1.4998229E-2,1.541328E-2,2.6808662E-2,2.1569248E-2,3.2017108E-2,4.26754E-2,5.6051165E-2],"split_indices":[5,5,5,5,5,4,4,532,4,4,4,5,5,4,5,0,0,0,0,0,0,0,0,0,0,0,0,0,0,0,0],"split_type":[0,0,0,0,0,0,0,0,0,0,0,0,0,0,0,0,0,0,0,0,0,0,0,0,0,0,0,0,0,0,0],"sum_hessian":[2.5727089E5,1.5886858E5,9.840231E4,9.948451E4,5.9384074E4,5.3226164E4,4.517615E4,5.219066E4,4.7293848E4,3.2148686E4,2.7235389E4,3.9499074E4,1.3727089E4,3.1185756E4,1.3990393E4,3.045747E3,4.9144914E4,7.481836E3,3.981201E4,3.0392486E4,1.7561979E3,2.4476467E4,2.758923E3,2.5983926E4,1.3515148E4,3.868667E3,9.858423E3,1.1636319E4,1.9549438E4,1.1141631E4,2.8487617E3],"tree_param":{"num_deleted":"0","num_feature":"698","num_nodes":"31","size_leaf_vector":"1"}},{"base_weights":[3.878358E-4,6.291484E-2,-1.2313087E-1,9.0602145E-2,1.2025271E-2,-8.2443886E-2,-1.9105618E-1,1.0445382E-1,6.302329E-2,4.9791455E-2,-1.8028716E-2,-5.1317714E-2,-1.3624446E-1,-1.5633807E-1,-2.4934539E-1,6.6932105E-3,1.0942033E-2,-3.547887E-3,6.639967E-3,1.3726872E-3,6.2835775E-3,-9.161681E-3,-1.4121116E-3,-1.8685555E-2,-4.370802E-3,-1.2293519E-2,-2.3457037E-2,-1.0827948E-2,-1.7992234E-2,-2.3454731E-2,-3.1092113E-2],"categories":[],"categories_nodes":[],"categories_segments":[],"categories_sizes":[],"default_left":[0,0,0,0,0,0,0,0,0,0,0,0,0,0,0,0,0,0,0,0,0,0,0,0,0,0,0,0,0,0,0],"id":1,"left_children":[1,3,5,7,9,11,13,15,17,19,21,23,25,27,29,-1,-1,-1,-1,-1,-1,-1,-1,-1,-1,-1,-1,-1,-1,-1,-1],"loss_changes":[1.9853036E3,2.404624E2,2.3874426E2,4.2216675E1,6.825662E1,9.04733E1,6.5452515E1,1.3703125E1,1.2293198E1,1.2535851E1,9.628242E0,3.5296486E1,2.588501E1,2.2971802E1,1.0933228E1,0E0,0E0,0E0,0E0,0E0,0E0,0E0,0E0,0E0,0E0,0E0,0E0,0E0,0E0,0E0,0E0],"parents":[2147483647,0,0,1,1,2,2,3,3,4,4,5,5,6,6,7,7,8,8,9,9,10,10,11,11,12,12,13,13,14,14],"right_children":[2,4,6,8,10,12,14,16,18,20,22,24,26,28,30,-1,-1,-1,-1,-1,-1,-1,-1,-1,-1,-1,-1,-1,-1,-1,-1],"split_conditions":[3.883697E-1,-2.3194827E-1,1.1202095E0,-5.097941E-1,-3.558151E-1,5.932439E-1,1.3952204E0,-6.586059E-1,2.00001E0,-4.5551708E-1,-1.3900942E0,2.00001E0,3.4151788E0,8.9373015E-2,2.7701085E0,6.6932105E-3,1.0942033E-2,-3.547887E-3,6.639967E-3,1.3726872E-3,6.2835775E-3,-9.161681E-3,-1.4121116E-3,-1.8685555E-2,-4.370802E-3,-1.2293519E-2,-2.3457037E-2,-1.0827948E-2,-1.7992234E-2,-2.3454731E-2,-3.1092113E-2],"split_indices":[5,5,4,7,7,7,5,3,32,1,3,32,7,7,4,0,0,0,0,0,0,0,0,0,0,0,0,0,0,0,0],"split_type":[0,0,0,0,0,0,0,0,0,0,0,0,0,0,0,0,0,0,0,0,0,0,0,0,0,0,0,0,0,0,0],"sum_hessian":[2.570533E5,1.706621E5,8.6391195E4,1.1052719E5,6.0134906E4,5.4029785E4,3.2361412E4,7.357223E4,3.695496E4,2.664803E4,3.348688E4,3.4228777E4,1.980101E4,2.0283736E4,1.2077676E4,8.601653E3,6.497058E4,1.224416E3,3.5730543E4,7.078801E3,1.9569229E4,1.687392E3,3.1799486E4,1.8183433E3,3.2410434E4,1.7442293E4,2.3587156E3,6.679085E3,1.3604651E4,9.741399E3,2.3362764E3],"tree_param":{"num_deleted":"0","num_feature":"698","num_nodes":"31","size_leaf_vector":"1"}},{"base_weights":[6.315338E-4,1.3736871E-1,-1.5900774E-1,1.9264993E-1,5.8906645E-2,-8.357637E-2,-2.2941613E-1,4.077052E-1,1.8156992E-1,1.17082946E-1,5.0853337E-3,-3.1860504E-2,-1.30904E-1,-1.4995337E-1,-2.565743E-1,4.5396402E-2,3.34723E-2,2.017967E-2,1.1566076E-2,4.0252175E-2,1.1375206E-2,3.4236484E-3,-4.5771203E-3,-1.23372935E-2,-2.2464434E-3,-9.256454E-3,-1.5303232E-2,-2.4341114E-2,-1.3890567E-2,-3.340676E-2,-2.4391636E-2],"categories":[],"categories_nodes":[],"categories_segments":[],"categories_sizes":[],"default_left":[0,0,0,0,0,0,0,0,0,0,0,0,0,0,0,0,0,0,0,0,0,0,0,0,0,0,0,0,0,0,0],"id":2,"left_children":[1,3,5,7,9,11,13,15,17,19,21,23,25,27,29,-1,-1,-1,-1,-1,-1,-1,-1,-1,-1,-1,-1,-1,-1,-1,-1],"loss_changes":[5.6117173E3,6.006128E2,6.299055E2,1.9349756E2,1.7921776E2,1.4015173E2,1.3234961E2,1.3283386E1,1.02971436E2,2.6105957E1,4.408111E1,2.3526522E1,2.5352356E1,1.6102173E1,4.4763916E1,0E0,0E0,0E0,0E0,0E0,0E0,0E0,0E0,0E0,0E0,0E0,0E0,0E0,0E0,0E0,0E0],"parents":[2147483647,0,0,1,1,2,2,3,3,4,4,5,5,6,6,7,7,8,8,9,9,10,10,11,11,12,12,13,13,14,14],"right_children":[2,4,6,8,10,12,14,16,18,20,22,24,26,28,30,-1,-1,-1,-1,-1,-1,-1,-1,-1,-1,-1,-1,-1,-1,-1,-1],"split_conditions":[5.0951306E-2,-5.2390355E-1,6.937996E-1,2.00001E0,-4.6373448E-1,-1.4953987E-1,8.9373015E-2,-9.9656E-1,-4.6373448E-1,2.00001E0,-4.007767E-2,-1.1900897E0,3.1093243E-1,-1.5197161E0,-1.5713469E0,4.5396402E-2,3.34723E-2,2.017967E-2,1.1566076E-2,4.0252175E-2,1.1375206E-2,3.4236484E-3,-4.5771203E-3,-1.23372935E-2,-2.2464434E-3,-9.256454E-3,-1.5303232E-2,-2.4341114E-2,-1.3890567E-2,-3.340676E-2,-2.4391636E-2],"split_indices":[5,5,5,532,7,7,7,5,7,325,7,0,5,0,0,0,0,0,0,0,0,0,0,0,0,0,0,0,0,0,0],"split_type":[0,0,0,0,0,0,0,0,0,0,0,0,0,0,0,0,0,0,0,0,0,0,0,0,0,0,0,0,0,0,0],"sum_hessian":[2.5707866E5,1.3847211E5,1.1860655E5,8.123543E4,5.723668E4,5.726182E4,6.134473E4,3.9785652E3,7.725687E4,2.750496E4,2.9731719E4,2.736319E4,2.989863E4,1.5627201E4,4.5717527E4,2.4319097E3,1.5466554E3,5.911352E4,1.8143346E4,3.158812E2,2.718908E4,1.8899045E4,1.0832673E4,2.5467869E3,2.4816402E4,1.0943362E4,1.8955268E4,1.6497916E3,1.397741E4,6.415528E3,3.9302E4],"tree_param":{"num_deleted":"0","num_feature":"698","num_nodes":"31","size_leaf_vector":"1"}},{"base_weights":[-9.119838E-4,7.367256E-2,-1.2942919E-1,1.0275861E-1,1.3792765E-2,-8.370341E-2,-2.029846E-1,1.1720646E-1,7.4573494E-2,-3.751129E-2,2.1273497E-2,-6.2460113E-2,-1.2942213E-1,-1.8143506E-1,-2.6635513E-1,6.774224E-3,1.2416433E-2,1.2217601E-3,8.100585E-3,-1.1660256E-2,-2.5876907E-3,3.3311476E-3,-1.3482375E-3,-4.2505446E-3,-9.301598E-3,-7.4608414E-3,-1.4165147E-2,-1.4206516E-2,-2.0207694E-2,-2.20407E-2,-2.9259771E-2],"categories":[],"categories_nodes":[],"categories_segments":[],"categories_sizes":[],"default_left":[0,0,0,0,0,0,0,0,0,0,0,0,0,0,0,0,0,0,0,0,0,0,0,0,0,0,0,0,0,0,0],"id":3,"left_children":[1,3,5,7,9,11,13,15,17,19,21,23,25,27,29,-1,-1,-1,-1,-1,-1,-1,-1,-1,-1,-1,-1,-1,-1,-1,-1],"loss_changes":[2.4673376E3,2.836803E2,3.1791125E2,4.4633423E1,2.0438534E1,5.660605E1,4.943506E1,2.4934814E1,1.490155E1,6.233057E0,1.9445602E1,2.4264069E1,1.2385162E1,2.194867E1,1.1020447E1,0E0,0E0,0E0,0E0,0E0,0E0,0E0,0E0,0E0,0E0,0E0,0E0,0E0,0E0,0E0,0E0],"parents":[2147483647,0,0,1,1,2,2,3,3,4,4,5,5,6,6,7,7,8,8,9,9,10,10,11,11,12,12,13,13,14,14],"right_children":[2,4,6,8,10,12,14,16,18,20,22,24,26,28,30,-1,-1,-1,-1,-1,-1,-1,-1,-1,-1,-1,-1,-1,-1,-1,-1],"split_conditions":[3.0020055E-1,-2.4203551E-1,1.0811671E0,-6.1691517E-1,-8.8542515E-1,9.3806434E-1,1.9729655E0,-1.3100162E0,-1.0572041E0,-1.624483E0,1.528751E-1,6.6767246E-1,5.04519E-1,3.0486706E-1,1.5182761E0,6.774224E-3,1.2416433E-2,1.2217601E-3,8.100585E-3,-1.1660256E-2,-2.5876907E-3,3.3311476E-3,-1.3482375E-3,-4.2505446E-3,-9.301598E-3,-7.4608414E-3,-1.4165147E-2,-1.4206516E-2,-2.0207694E-2,-2.20407E-2,-2.9259771E-2],"split_indices":[5,5,5,5,3,4,4,4,4,3,5,5,5,4,5,0,0,0,0,0,0,0,0,0,0,0,0,0,0,0,0],"split_type":[0,0,0,0,0,0,0,0,0,0,0,0,0,0,0,0,0,0,0,0,0,0,0,0,0,0,0,0,0,0,0],"sum_hessian":[2.5740386E5,1.6287836E5,9.45255E4,1.09627234E5,5.325113E4,5.8290996E4,3.6234504E4,7.247367E4,3.7153566E4,6.7760293E3,4.6475098E4,3.9800145E4,1.8490854E4,2.7042422E4,9.192083E3,8.93864E3,6.353503E4,3.4744846E3,3.3679082E4,8.6778046E2,5.908249E3,3.4519152E4,1.1955946E4,2.4078164E4,1.57219795E4,3.374217E3,1.5116638E4,9.304323E3,1.7738098E4,3.344899E3,5.847184E3],"tree_param":{"num_deleted":"0","num_feature":"698","num_nodes":"31","size_leaf_vector":"1"}},{"base_weights":[2.379852E-4,-1.3313177E-1,1.7716874E-1,-1.8517998E-1,-4.2870235E-2,8.501465E-2,2.5131202E-1,-2.0985058E-1,-1.22949705E-1,-9.6238144E-2,1.2703559E-2,2.5030391E-2,1.3165206E-1,1.3940684E-1,2.773454E-1,-3.557292E-2,-2.006903E-2,-4.9418337E-3,-1.3831116E-2,2.3863262E-3,-1.1042508E-2,1.1695207E-2,-6.579603E-5,2.5099507E-2,1.1892284E-3,1.1085322E-2,1.7776111E-2,2.3254063E-2,1.0951235E-2,3.8359582E-2,2.5536885E-2],"categories":[],"categories_nodes":[],"categories_segments":[],"categories_sizes":[],"default_left":[0,0,0,0,0,0,0,0,0,0,0,0,0,0,0,0,0,0,0,0,0,0,0,0,0,0,0,0,0,0,0],"id":4,"left_children":[1,3,5,7,9,11,13,15,17,19,21,23,25,27,29,-1,-1,-1,-1,-1,-1,-1,-1,-1,-1,-1,-1,-1,-1,-1,-1],"loss_changes":[6.0690986E3,6.8894995E2,7.552881E2,1.4277563E2,1.5908147E2,1.3787943E2,1.784231E2,8.893506E1,2.9823029E1,4.662349E1,3.660102E1,6.400371E1,2.6572327E1,3.2169113E1,1.1594214E2,0E0,0E0,0E0,0E0,0E0,0E0,0E0,0E0,0E0,0E0,0E0,0E0,0E0,0E0,0E0,0E0],"parents":[2147483647,0,0,1,1,2,2,3,3,4,4,5,5,6,6,7,7,8,8,9,9,10,10,11,11,12,12,13,13,14,14],"right_children":[2,4,6,8,10,12,14,16,18,20,22,24,26,28,30,-1,-1,-1,-1,-1,-1,-1,-1,-1,-1,-1,-1,-1,-1,-1,-1],"split_conditions":[1.3196571E-1,-4.6373448E-1,6.937996E-1,-4.6237883E-1,-3.1176224E-1,-1.7475751E-1,-5.9551053E-2,2.00001E0,-5.92984E-1,-8.1102425E-1,-9.638751E-1,2.00001E0,5.2878445E-1,-7.762884E-1,-1.3493803E0,-3.557292E-2,-2.006903E-2,-4.9418337E-3,-1.3831116E-2,2.3863262E-3,-1.1042508E-2,1.1695207E-2,-6.579603E-5,2.5099507E-2,1.1892284E-3,1.1085322E-2,1.7776111E-2,2.3254063E-2,1.0951235E-2,3.8359582E-2,2.5536885E-2],"split_indices":[5,7,5,5,5,7,7,532,3,3,0,32,5,1,0,0,0,0,0,0,0,0,0,0,0,0,0,0,0,0,0],"split_type":[0,0,0,0,0,0,0,0,0,0,0,0,0,0,0,0,0,0,0,0,0,0,0,0,0,0,0,0,0,0,0],"sum_hessian":[2.571936E5,1.4664977E5,1.1054382E5,9.3013586E4,5.3636188E4,4.9286652E4,6.1257168E4,6.660592E4,2.6407662E4,2.7360738E4,2.6275447E4,2.155916E4,2.7727492E4,1.1562365E4,4.96948E4,3.9331006E3,6.267282E4,4.5642036E3,2.1843459E4,2.8904612E3,2.4470277E4,2.9842378E3,2.3291209E4,1.1836278E3,2.0375531E4,1.911053E4,8.616962E3,2.807878E3,8.754487E3,8.514255E3,4.1180547E4],"tree_param":{"num_deleted":"0","num_feature":"698","num_nodes":"31","size_leaf_vector":"1"}},{"base_weights":[-8.824703E-4,-1.1927759E-1,1.8904084E-1,-1.7473167E-1,-2.8771311E-2,1.3215268E-1,3.0911338E-1,-1.8730493E-1,-7.965857E-2,9.914803E-2,-3.884748E-2,1.1262359E-1,2.4325867E-1,2.8299537E-1,4.829975E-1,-5.8244984E-3,-1.97506E-2,1.1234893E-2,-8.578812E-3,1.579809E-2,5.399545E-3,-5.521959E-3,6.2872223E-3,2.5369866E-2,8.898276E-3,1.8588776E-2,2.7858246E-2,2.5816469E-2,3.8098253E-2,4.4708043E-2,6.853809E-2],"categories":[],"categories_nodes":[],"categories_segments":[],"categories_sizes":[],"default_left":[0,0,0,0,0,0,0,0,0,0,0,0,0,0,0,0,0,0,0,0,0,0,0,0,0,0,0,0,0,0,0],"id":5,"left_children":[1,3,5,7,9,11,13,15,17,19,21,23,25,27,29,-1,-1,-1,-1,-1,-1,-1,-1,-1,-1,-1,-1,-1,-1,-1,-1],"loss_changes":[5.7808506E3,7.9481836E2,6.7430054E2,1.1736841E2,7.755661E1,1.4532153E2,1.4399146E2,1.1416943E2,1.3510544E1,1.1662964E1,9.288989E1,1.8999646E2,2.0240723E1,6.704004E1,2.9808533E1,0E0,0E0,0E0,0E0,0E0,0E0,0E0,0E0,0E0,0E0,0E0,0E0,0E0,0E0,0E0,0E0],"parents":[2147483647,0,0,1,1,2,2,3,3,4,4,5,5,6,6,7,7,8,8,9,9,10,10,11,11,12,12,13,13,14,14],"right_children":[2,4,6,8,10,12,14,16,18,20,22,24,26,28,30,-1,-1,-1,-1,-1,-1,-1,-1,-1,-1,-1,-1,-1,-1,-1,-1],"split_conditions":[-1.0616748E-1,-4.9194482E-1,9.6687245E-1,7.817412E-1,-1.2184439E0,1.0842177E0,3.7265863E0,-1.0026207E0,2.00001E0,-1.6880842E0,9.3328047E-1,-1.2184439E0,1.9949499E-1,1.0842177E0,1.9273381E0,-5.8244984E-3,-1.97506E-2,1.1234893E-2,-8.578812E-3,1.579809E-2,5.399545E-3,-5.521959E-3,6.2872223E-3,2.5369866E-2,8.898276E-3,1.8588776E-2,2.7858246E-2,2.5816469E-2,3.8098253E-2,4.4708043E-2,6.853809E-2],"split_indices":[7,7,7,0,0,0,7,0,399,0,0,0,7,0,0,0,0,0,0,0,0,0,0,0,0,0,0,0,0,0,0],"split_type":[0,0,0,0,0,0,0,0,0,0,0,0,0,0,0,0,0,0,0,0,0,0,0,0,0,0,0,0,0,0,0],"sum_hessian":[2.5708472E5,1.583637E5,9.8721E4,9.81967E4,6.0167008E4,6.698625E4,3.1734752E4,8.672632E4,1.1470382E4,4.392635E3,5.5774375E4,5.6973957E4,1.0012293E4,2.7592834E4,4.141917E3,6.3533154E3,8.0373E4,3.5431076E2,1.111607E4,1.9062853E3,2.4863494E3,4.8042273E4,7.7321006E3,8.1757856E3,4.879817E4,3.817837E3,6.194456E3,2.2017154E4,5.57568E3,3.5203655E3,6.215516E2],"tree_param":{"num_deleted":"0","num_feature":"698","num_nodes":"31","size_leaf_vector":"1"}},{"base_weights":[4.8816905E-4,5.9173707E-2,-1.1733919E-1,8.2470514E-2,7.4526886E-3,-7.8657545E-2,-1.8254668E-1,9.399235E-2,4.504666E-2,5.2608382E-2,-1.2410541E-2,-5.389911E-2,-1.2796383E-1,-1.4683333E-1,-2.4295373E-1,1.0988134E-2,8.189689E-3,6.0092863E-3,1.6134402E-3,1.6521653E-3,6.413396E-3,-9.733457E-3,-8.085216E-4,-1.7770868E-2,-4.715752E-3,-8.6919395E-3,-1.5327505E-2,-9.283557E-3,-1.7181322E-2,-2.234278E-2,-2.791507E-2],"categories":[],"categories_nodes":[],"categories_segments":[],"categories_sizes":[],"default_left":[0,0,0,0,0,0,0,0,0,0,0,0,0,0,0,0,0,0,0,0,0,0,0,0,0,0,0,0,0,0,0],"id":6,"left_children":[1,3,5,7,9,11,13,15,17,19,21,23,25,27,29,-1,-1,-1,-1,-1,-1,-1,-1,-1,-1,-1,-1,-1,-1,-1,-1],"loss_changes":[1.7784805E3,2.0687292E2,2.1567505E2,5.1036133E1,4.782453E1,6.551605E1,6.865051E1,1.7384766E1,1.2121464E1,6.773918E0,1.3601564E1,2.9817734E1,1.8625977E1,2.6976624E1,8.297363E0,0E0,0E0,0E0,0E0,0E0,0E0,0E0,0E0,0E0,0E0,0E0,0E0,0E0,0E0,0E0,0E0],"parents":[2147483647,0,0,1,1,2,2,3,3,4,4,5,5,6,6,7,7,8,8,9,9,10,10,11,11,12,12,13,13,14,14],"right_children":[2,4,6,8,10,12,14,16,18,20,22,24,26,28,30,-1,-1,-1,-1,-1,-1,-1,-1,-1,-1,-1,-1,-1,-1,-1,-1],"split_conditions":[3.883697E-1,-3.3769184E-1,1.1202095E0,-2.3194827E-1,-3.6188468E-1,6.8358254E-1,1.3952204E0,-7.035847E-1,-4.8720095E-1,-4.704966E-1,-1.3900942E0,2.00001E0,9.747426E-1,6.6559784E-2,2.4411266E0,1.0988134E-2,8.189689E-3,6.0092863E-3,1.6134402E-3,1.6521653E-3,6.413396E-3,-9.733457E-3,-8.085216E-4,-1.7770868E-2,-4.715752E-3,-8.6919395E-3,-1.5327505E-2,-9.283557E-3,-1.7181322E-2,-2.234278E-2,-2.791507E-2],"split_indices":[5,7,4,5,5,7,5,7,7,2,3,32,5,7,4,0,0,0,0,0,0,0,0,0,0,0,0,0,0,0,0],"split_type":[0,0,0,0,0,0,0,0,0,0,0,0,0,0,0,0,0,0,0,0,0,0,0,0,0,0,0,0,0,0,0],"sum_hessian":[2.5719853E5,1.7168764E5,8.551089E4,1.18369586E5,5.3318055E4,5.367351E4,3.1837383E4,9.050418E4,2.7865406E4,1.628812E4,3.7029934E4,3.5732863E4,1.7940648E4,2.0010424E4,1.1826958E4,3.911428E4,5.1389895E4,1.8326861E4,9.538545E3,3.9434763E3,1.2344644E4,1.7935537E3,3.5236383E4,1.843916E3,3.3888945E4,6.8451104E3,1.1095538E4,6.330601E3,1.3679823E4,7.6873174E3,4.1396406E3],"tree_param":{"num_deleted":"0","num_feature":"698","num_nodes":"31","size_leaf_vector":"1"}},{"base_weights":[-8.7729865E-4,1.0946577E-1,-1.4586884E-1,1.3756053E-1,-3.4627702E-2,-8.663759E-2,-2.6379183E-1,1.7986478E-1,8.492729E-2,-3.3013662E-3,-1.4012556E-1,-4.4979364E-2,-1.403318E-1,-2.3744644E-1,-3.1407204E-1,7.6304115E-3,1.8788857E-2,-2.0235074E-3,9.488455E-3,5.6484486E-3,-4.111306E-3,-2.4243226E-2,-1.2495177E-2,-9.0101373E-4,-8.333347E-3,-2.3394488E-2,-1.2273539E-2,-1.874791E-2,-2.5702465E-2,-4.0317275E-2,-3.0374011E-2],"categories":[],"categories_nodes":[],"categories_segments":[],"categories_sizes":[],"default_left":[0,0,0,0,0,0,0,0,0,0,0,0,0,0,0,0,0,0,0,0,0,0,0,0,0,0,0,0,0,0,0],"id":7,"left_children":[1,3,5,7,9,11,13,15,17,19,21,23,25,27,29,-1,-1,-1,-1,-1,-1,-1,-1,-1,-1,-1,-1,-1,-1,-1,-1],"loss_changes":[4.1121416E3,5.908624E2,7.7580444E2,2.7194092E2,7.870464E1,1.6537994E2,4.9119385E1,5.6251465E1,5.6994232E1,4.1514847E1,8.434044E0,5.7440704E1,5.3181458E1,2.3794922E1,1.162915E1,0E0,0E0,0E0,0E0,0E0,0E0,0E0,0E0,0E0,0E0,0E0,0E0,0E0,0E0,0E0,0E0],"parents":[2147483647,0,0,1,1,2,2,3,3,4,4,5,5,6,6,7,7,8,8,9,9,10,10,11,11,12,12,13,13,14,14],"right_children":[2,4,6,8,10,12,14,16,18,20,22,24,26,28,30,-1,-1,-1,-1,-1,-1,-1,-1,-1,-1,-1,-1,-1,-1,-1,-1],"split_conditions":[-2.2879367E-1,3.174873E-1,8.951507E-1,-5.9602445E-1,1.1202095E0,3.5726047E-1,1.8650444E0,-9.1001636E-1,-9.5271736E-1,-5.684043E-1,-1.0105628E0,-1.275204E-1,-1.0885717E0,1.8690494E-1,-2.090281E0,7.6304115E-3,1.8788857E-2,-2.0235074E-3,9.488455E-3,5.6484486E-3,-4.111306E-3,-2.4243226E-2,-1.2495177E-2,-9.0101373E-4,-8.333347E-3,-2.3394488E-2,-1.2273539E-2,-1.874791E-2,-2.5702465E-2,-4.0317275E-2,-3.0374011E-2],"split_indices":[7,4,4,7,4,7,4,0,3,7,3,4,0,7,3,0,0,0,0,0,0,0,0,0,0,0,0,0,0,0,0],"split_type":[0,0,0,0,0,0,0,0,0,0,0,0,0,0,0,0,0,0,0,0,0,0,0,0,0,0,0,0,0,0,0],"sum_hessian":[2.5702595E5,1.4595211E5,1.1107384E5,1.2213816E5,2.3813953E4,7.3937625E4,3.713622E4,6.7711914E4,5.4426242E4,1.8362467E4,5.451486E3,4.163629E4,3.2301338E4,2.4371812E4,1.2764405E4,4.8697637E3,6.284215E4,4.7075005E3,4.9718742E4,7.113881E3,1.1248587E4,7.0217975E2,4.749306E3,2.148679E4,2.0149498E4,5.109018E3,2.719232E4,6.8640366E3,1.7507775E4,1.3223818E3,1.1442023E4],"tree_param":{"num_deleted":"0","num_feature":"698","num_nodes":"31","size_leaf_vector":"1"}},{"base_weights":[-1.1811673E-3,6.70059E-2,-1.2665929E-1,9.816682E-2,1.6064307E-2,-7.3810756E-2,-1.8621814E-1,1.1208489E-1,5.0056253E-2,6.8141885E-2,-3.5888545E-4,-2.2408402E-2,-1.03406E-1,-1.5356334E-1,-2.290536E-1,1.1460452E-2,2.1878004E-3,5.8510047E-3,6.344278E-4,8.421587E-3,3.481249E-3,4.0158723E-4,-9.586669E-3,-1.9132769E-3,-1.8575821E-2,-7.707613E-3,-1.3702256E-2,-1.4245872E-2,-2.8053856E-2,-1.9058166E-2,-2.5449065E-2],"categories":[],"categories_nodes":[],"categories_segments":[],"categories_sizes":[],"default_left":[0,0,0,0,0,0,0,0,0,0,0,0,0,0,0,0,0,0,0,0,0,0,0,0,0,0,0,0,0,0,0],"id":8,"left_children":[1,3,5,7,9,11,13,15,17,19,21,23,25,27,29,-1,-1,-1,-1,-1,-1,-1,-1,-1,-1,-1,-1,-1,-1,-1,-1],"loss_changes":[2.2003904E3,2.645005E2,2.8499585E2,6.922223E1,5.408999E1,7.298566E1,5.9511963E1,1.82229E1,8.572643E0,8.120163E0,2.0089716E1,9.377288E0,2.693924E1,3.4024536E1,1.797052E1,0E0,0E0,0E0,0E0,0E0,0E0,0E0,0E0,0E0,0E0,0E0,0E0,0E0,0E0,0E0,0E0],"parents":[2147483647,0,0,1,1,2,2,3,3,4,4,5,5,6,6,7,7,8,8,9,9,10,10,11,11,12,12,13,13,14,14],"right_children":[2,4,6,8,10,12,14,16,18,20,22,24,26,28,30,-1,-1,-1,-1,-1,-1,-1,-1,-1,-1,-1,-1,-1,-1,-1,-1],"split_conditions":[3.3304614E-1,-4.337981E-1,9.582564E-1,-2.8209174E-1,-5.6530875E-1,-1.2412824E-1,1.3305168E0,1.0913827E0,1.8426725E-1,-7.881143E-2,1.1446998E0,2.032021E0,6.8659776E-1,3.7265863E0,1.3665758E0,1.1460452E-2,2.1878004E-3,5.8510047E-3,6.344278E-4,8.421587E-3,3.481249E-3,4.0158723E-4,-9.586669E-3,-1.9132769E-3,-1.8575821E-2,-7.707613E-3,-1.3702256E-2,-1.4245872E-2,-2.8053856E-2,-1.9058166E-2,-2.5449065E-2],"split_indices":[5,7,5,5,5,7,4,3,5,7,4,4,4,7,5,0,0,0,0,0,0,0,0,0,0,0,0,0,0,0,0],"split_type":[0,0,0,0,0,0,0,0,0,0,0,0,0,0,0,0,0,0,0,0,0,0,0,0,0,0,0,0,0,0,0],"sum_hessian":[2.571736E5,1.6662631E5,9.054727E4,1.0338492E5,6.3241395E4,4.79775E4,4.2569773E4,8.018625E4,2.3198672E4,1.5161492E4,4.8079902E4,1.7530861E4,3.0446639E4,2.415798E4,1.8411793E4,7.800712E4,2.179138E3,1.9438896E4,3.759775E3,1.0227489E4,4.934002E3,4.597497E4,2.1049365E3,1.7187324E4,3.4353812E2,1.7075611E4,1.3371027E4,2.2217104E4,1.9408754E3,7.3316353E3,1.1080158E4],"tree_param":{"num_deleted":"0","num_feature":"698","num_nodes":"31","size_leaf_vector":"1"}},{"base_weights":[3.828933E-4,-1.2414365E-1,1.6445412E-1,-1.7302628E-1,-3.1556934E-2,9.224059E-2,2.4007124E-1,-2.0173234E-1,-1.1585409E-1,-9.2718005E-2,1.3160609E-2,3.3060234E-2,1.374281E-1,1.7456329E-1,3.027583E-1,-3.4803923E-2,-1.9265534E-2,-4.174664E-3,-1.3008185E-2,-1.4771379E-2,-6.455229E-3,-1.0660664E-3,5.8180853E-3,8.655786E-3,8.809976E-4,1.0040666E-2,1.839627E-2,9.226598E-3,2.0241404E-2,4.1334637E-2,2.8261352E-2],"categories":[],"categories_nodes":[],"categories_segments":[],"categories_sizes":[],"default_left":[0,0,0,0,0,0,0,0,0,0,0,0,0,0,0,0,0,0,0,0,0,0,0,0,0,0,0,0,0,0,0],"id":9,"left_children":[1,3,5,7,9,11,13,15,17,19,21,23,25,27,29,-1,-1,-1,-1,-1,-1,-1,-1,-1,-1,-1,-1,-1,-1,-1,-1],"loss_changes":[5.253303E3,6.615718E2,6.05801E2,1.5698462E2,1.381456E2,1.5176028E2,2.2249756E2,8.451196E1,3.3714264E1,3.3035217E1,3.1292587E1,3.1877954E1,5.541992E1,6.072815E1,6.1575195E1,0E0,0E0,0E0,0E0,0E0,0E0,0E0,0E0,0E0,0E0,0E0,0E0,0E0,0E0,0E0,0E0],"parents":[2147483647,0,0,1,1,2,2,3,3,4,4,5,5,6,6,7,7,8,8,9,9,10,10,11,11,12,12,13,13,14,14],"right_children":[2,4,6,8,10,12,14,16,18,20,22,24,26,28,30,-1,-1,-1,-1,-1,-1,-1,-1,-1,-1,-1,-1,-1,-1,-1,-1],"split_conditions":[1.428249E-1,-4.390112E-1,8.046095E-1,-5.2390355E-1,-3.9267272E-1,-1.4133082E-1,1.0284485E0,2.00001E0,-6.2486094E-1,-9.031947E-1,5.5073228E-2,-4.189557E-1,4.9327582E-1,6.6559784E-2,-1.5826372E0,-3.4803923E-2,-1.9265534E-2,-4.174664E-3,-1.3008185E-2,-1.4771379E-2,-6.455229E-3,-1.0660664E-3,5.8180853E-3,8.655786E-3,8.809976E-4,1.0040666E-2,1.839627E-2,9.226598E-3,2.0241404E-2,4.1334637E-2,2.8261352E-2],"split_indices":[5,7,5,5,5,7,4,532,3,5,7,1,4,7,1,0,0,0,0,0,0,0,0,0,0,0,0,0,0,0,0],"split_type":[0,0,0,0,0,0,0,0,0,0,0,0,0,0,0,0,0,0,0,0,0,0,0,0,0,0,0,0,0,0,0],"sum_hessian":[2.5711931E5,1.4617548E5,1.1094382E5,9.566616E4,5.050933E4,5.67502E4,5.4193617E4,6.368666E4,3.1979498E4,2.1332023E4,2.9177307E4,2.4571537E4,3.2178664E4,2.6502406E4,2.769121E4,3.7181782E3,5.996848E4,5.1514277E3,2.682807E4,7.2234404E3,1.4108583E4,1.9081564E4,1.0095742E4,7.6632812E3,1.6908256E4,1.7922912E4,1.4255752E4,6.7021777E3,1.980023E4,4.263964E3,2.3427246E4],"tree_param":{"num_deleted":"0","num_feature":"698","num_nodes":"31","size_leaf_vector":"1"}},{"base_weights":[-5.594568E-4,-1.3131976E-1,1.975143E-1,-1.8656401E-1,-3.8891383E-2,1.19780414E-1,2.8872415E-1,-2.098956E-1,-1.2147082E-1,-8.7078184E-2,1.7284773E-2,8.6951144E-2,2.0610124E-1,2.2501966E-1,3.5591307E-1,-3.3381358E-2,-2.024212E-2,-2.0164426E-2,-9.947024E-3,-1.2546802E-2,-6.071259E-3,6.2901474E-4,1.1711824E-2,3.3059858E-3,1.2775374E-2,1.4161743E-2,2.392236E-2,2.1137286E-2,5.3478893E-2,2.7562706E-2,3.8654793E-2],"categories":[],"categories_nodes":[],"categories_segments":[],"categories_sizes":[],"default_left":[0,0,0,0,0,0,0,0,0,0,0,0,0,0,0,0,0,0,0,0,0,0,0,0,0,0,0,0,0,0,0],"id":10,"left_children":[1,3,5,7,9,11,13,15,17,19,21,23,25,27,29,-1,-1,-1,-1,-1,-1,-1,-1,-1,-1,-1,-1,-1,-1,-1,-1],"loss_changes":[6.6563633E3,7.904468E2,7.245437E2,1.471272E2,1.5677075E2,1.5634113E2,2.0118237E2,6.599487E1,4.5078613E1,3.1545517E1,2.9350922E1,8.7896515E1,3.2434814E1,1.0193237E2,5.6175293E1,0E0,0E0,0E0,0E0,0E0,0E0,0E0,0E0,0E0,0E0,0E0,0E0,0E0,0E0,0E0,0E0],"parents":[2147483647,0,0,1,1,2,2,3,3,4,4,5,5,6,6,7,7,8,8,9,9,10,10,11,11,12,12,13,13,14,14],"right_children":[2,4,6,8,10,12,14,16,18,20,22,24,26,28,30,-1,-1,-1,-1,-1,-1,-1,-1,-1,-1,-1,-1,-1,-1,-1,-1],"split_conditions":[2.468489E-1,-3.4169033E-1,9.254898E-1,-4.6373448E-1,-3.1834275E-1,9.3806434E-1,1.1684682E0,2.00001E0,-1.0690583E0,-1.4182746E-1,8.125748E-1,-1.0616748E-1,-9.7237386E-2,4.3754306E0,3.8987252E-1,-3.3381358E-2,-2.024212E-2,-2.0164426E-2,-9.947024E-3,-1.2546802E-2,-6.071259E-3,6.2901474E-4,1.1711824E-2,3.3059858E-3,1.2775374E-2,1.4161743E-2,2.392236E-2,2.1137286E-2,5.3478893E-2,2.7562706E-2,3.8654793E-2],"split_indices":[5,5,5,7,7,4,4,532,5,5,4,7,7,7,7,0,0,0,0,0,0,0,0,0,0,0,0,0,0,0,0],"split_type":[0,0,0,0,0,0,0,0,0,0,0,0,0,0,0,0,0,0,0,0,0,0,0,0,0,0,0,0,0,0,0],"sum_hessian":[2.5699861E5,1.5480375E5,1.0219487E5,9.6891125E4,5.791263E4,5.5174523E4,4.702034E4,7.1323984E4,2.5567139E4,3.1172727E4,2.6739902E4,3.9973812E4,1.5200711E4,2.4138256E4,2.2882084E4,4.0548652E3,6.726912E4,5.503475E3,2.0063664E4,1.2690649E4,1.8482078E4,2.4088146E4,2.6517568E3,1.7225074E4,2.2748738E4,5.160107E3,1.00406045E4,2.3121334E4,1.01692163E3,6.322484E3,1.6559602E4],"tree_param":{"num_deleted":"0","num_feature":"698","num_nodes":"31","size_leaf_vector":"1"}},{"base_weights":[4.9476675E-4,6.2575646E-2,-1.0037496E-1,8.361396E-2,2.1626791E-2,-5.8906734E-2,-1.5986991E-1,9.90292E-2,6.474132E-2,5.241751E-2,2.6354182E-4,-4.2875376E-2,-1.17026344E-1,-1.2835352E-1,-2.130948E-1,4.9889633E-3,1.0465478E-2,9.5958024E-4,7.2367624E-3,8.639423E-3,4.0501743E-3,-4.1705826E-3,1.0972919E-3,-4.128425E-4,-5.7957666E-3,-7.24543E-3,-1.4291862E-2,-2.2890585E-2,-1.1476992E-2,-1.7692074E-2,-2.4705194E-2],"categories":[],"categories_nodes":[],"categories_segments":[],"categories_sizes":[],"default_left":[0,0,0,0,0,0,0,0,0,0,0,0,0,0,0,0,0,0,0,0,0,0,0,0,0,0,0,0,0,0,0],"id":11,"left_children":[1,3,5,7,9,11,13,15,17,19,21,23,25,27,29,-1,-1,-1,-1,-1,-1,-1,-1,-1,-1,-1,-1,-1,-1,-1,-1],"loss_changes":[1.61022E3,1.3712555E2,2.4168347E2,3.0584473E1,3.5536797E1,5.3783615E1,6.74668E1,1.599353E1,1.988179E1,8.955807E0,1.4336659E1,2.6443527E1,1.439299E1,3.4494873E1,1.833606E1,0E0,0E0,0E0,0E0,0E0,0E0,0E0,0E0,0E0,0E0,0E0,0E0,0E0,0E0,0E0,0E0],"parents":[2147483647,0,0,1,1,2,2,3,3,4,4,5,5,6,6,7,7,8,8,9,9,10,10,11,11,12,12,13,13,14,14],"right_children":[2,4,6,8,10,12,14,16,18,20,22,24,26,28,30,-1,-1,-1,-1,-1,-1,-1,-1,-1,-1,-1,-1,-1,-1,-1,-1],"split_conditions":[2.468489E-1,-4.1293675E-1,9.9172366E-1,-6.588204E-1,-3.321972E-1,1.1202095E0,1.5225527E0,-6.821766E-1,-8.1508607E-1,-9.6860427E-1,-6.6987616E-1,-2.9876933E-1,6.157473E-1,-1.6880842E0,1.5182761E0,4.9889633E-3,1.0465478E-2,9.5958024E-4,7.2367624E-3,8.639423E-3,4.0501743E-3,-4.1705826E-3,1.0972919E-3,-4.128425E-4,-5.7957666E-3,-7.24543E-3,-1.4291862E-2,-2.2890585E-2,-1.1476992E-2,-1.7692074E-2,-2.4705194E-2],"split_indices":[5,7,5,5,5,4,4,3,0,5,0,7,5,0,5,0,0,0,0,0,0,0,0,0,0,0,0,0,0,0,0],"split_type":[0,0,0,0,0,0,0,0,0,0,0,0,0,0,0,0,0,0,0,0,0,0,0,0,0,0,0,0,0,0,0],"sum_hessian":[2.5713614E5,1.5917272E5,9.796343E4,1.0514915E5,5.4023566E4,5.7728457E4,4.0234977E4,5.7873566E4,4.7275586E4,2.2128477E4,3.189509E4,4.524899E4,1.2479468E4,2.5273205E4,1.49617705E4,5.9458965E3,5.1927668E4,5.7438984E3,4.1531688E4,5.743931E3,1.6384545E4,6.483555E3,2.5411533E4,1.2678564E4,3.2570422E4,4.587004E3,7.8924644E3,3.0059424E3,2.2267262E4,7.2474126E3,7.714358E3],"tree_param":{"num_deleted":"0","num_feature":"698","num_nodes":"31","size_leaf_vector":"1"}},{"base_weights":[9.397951E-5,1.2459537E-1,-1.4194067E-1,1.6931953E-1,5.7365272E-2,-7.177391E-2,-2.1355268E-1,1.3351357E-1,1.971765E-1,1.05678216E-1,4.5071254E-3,-2.4343789E-2,-1.15698814E-1,-1.5944867E-1,-2.695443E-1,2.0710953E-2,1.1578455E-2,2.4595737E-2,1.5975019E-2,5.596541E-3,1.2184892E-2,2.619827E-3,-4.285054E-3,-1.0872279E-4,-6.9972067E-3,-9.415671E-3,-1.9467106E-2,-8.569878E-3,-1.830321E-2,-2.091266E-2,-2.8980201E-2],"categories":[],"categories_nodes":[],"categories_segments":[],"categories_sizes":[],"default_left":[0,0,0,0,0,0,0,0,0,0,0,0,0,0,0,0,0,0,0,0,0,0,0,0,0,0,0,0,0,0,0],"id":12,"left_children":[1,3,5,7,9,11,13,15,17,19,21,23,25,27,29,-1,-1,-1,-1,-1,-1,-1,-1,-1,-1,-1,-1,-1,-1,-1,-1],"loss_changes":[4.5404575E3,4.1140112E2,6.0263696E2,8.192944E1,1.3959088E2,1.26208984E2,1.7976855E2,4.6891174E1,8.432617E1,2.2951233E1,2.6816275E1,3.0910831E1,5.348929E1,5.2491943E1,3.5638428E1,0E0,0E0,0E0,0E0,0E0,0E0,0E0,0E0,0E0,0E0,0E0,0E0,0E0,0E0,0E0,0E0],"parents":[2147483647,0,0,1,1,2,2,3,3,4,4,5,5,6,6,7,7,8,8,9,9,10,10,11,11,12,12,13,13,14,14],"right_children":[2,4,6,8,10,12,14,16,18,20,22,24,26,28,30,-1,-1,-1,-1,-1,-1,-1,-1,-1,-1,-1,-1,-1,-1,-1,-1],"split_conditions":[1.0331979E-2,-5.340211E-1,6.937996E-1,-8.0539906E-1,-4.441672E-1,-1.6657156E-1,1.0051273E0,-1.744241E0,-9.2893374E-1,-4.3148458E-1,3.279635E-2,4.7819898E-1,8.951507E-1,-3.0028317E-2,1.8690494E-1,2.0710953E-2,1.1578455E-2,2.4595737E-2,1.5975019E-2,5.596541E-3,1.2184892E-2,2.619827E-3,-4.285054E-3,-1.0872279E-4,-6.9972067E-3,-9.415671E-3,-1.9467106E-2,-8.569878E-3,-1.830321E-2,-2.091266E-2,-2.8980201E-2],"split_indices":[5,5,5,4,7,7,4,5,5,3,7,4,4,7,7,0,0,0,0,0,0,0,0,0,0,0,0,0,0,0,0],"split_type":[0,0,0,0,0,0,0,0,0,0,0,0,0,0,0,0,0,0,0,0,0,0,0,0,0,0,0,0,0,0,0],"sum_hessian":[2.5676023E5,1.3682528E5,1.1993495E5,8.216457E4,5.4660703E4,6.0579785E4,5.9355168E4,3.5955254E4,4.6209316E4,2.8557672E4,2.6103033E4,2.9128443E4,3.145134E4,3.0188365E4,2.9166805E4,6.9779604E3,2.8977293E4,2.0059062E4,2.6150256E4,7.0104E3,2.1547271E4,1.7903275E4,8.199758E3,1.929492E4,9.833523E3,2.4712453E4,6.7388877E3,7.315625E3,2.287274E4,7.3266743E3,2.184013E4],"tree_param":{"num_deleted":"0","num_feature":"698","num_nodes":"31","size_leaf_vector":"1"}},{"base_weights":[-5.478977E-4,5.728702E-2,-1.2701868E-1,8.666915E-2,2.1711055E-3,-7.993898E-2,-1.8521531E-1,1.0559331E-1,5.308965E-2,3.1365752E-2,-2.2991298E-2,-3.0555384E-2,-1.0341542E-1,-1.2561344E-1,-2.0903799E-1,1.08292075E-2,3.8047574E-4,1.1627522E-3,5.9562433E-3,4.3393937E-3,6.22117E-4,-7.921681E-4,-5.453694E-3,-1.5586083E-4,-6.4091794E-3,-7.5654485E-3,-1.4152119E-2,-1.118089E-2,-2.7410066E-2,-1.8696094E-2,-2.5717143E-2],"categories":[],"categories_nodes":[],"categories_segments":[],"categories_sizes":[],"default_left":[0,0,0,0,0,0,0,0,0,0,0,0,0,0,0,0,0,0,0,0,0,0,0,0,0,0,0,0,0,0,0],"id":13,"left_children":[1,3,5,7,9,11,13,15,17,19,21,23,25,27,29,-1,-1,-1,-1,-1,-1,-1,-1,-1,-1,-1,-1,-1,-1,-1,-1],"loss_changes":[1.8801802E3,2.8564764E2,2.2099023E2,7.310687E1,4.5058514E1,5.1694305E1,5.1190796E1,2.0213135E1,1.1129219E1,8.587128E0,1.5660265E1,1.3973453E1,3.196109E1,2.1088547E1,2.7335815E1,0E0,0E0,0E0,0E0,0E0,0E0,0E0,0E0,0E0,0E0,0E0,0E0,0E0,0E0,0E0,0E0],"parents":[2147483647,0,0,1,1,2,2,3,3,4,4,5,5,6,6,7,7,8,8,9,9,10,10,11,11,12,12,13,13,14,14],"right_children":[2,4,6,8,10,12,14,16,18,20,22,24,26,28,30,-1,-1,-1,-1,-1,-1,-1,-1,-1,-1,-1,-1,-1,-1,-1,-1],"split_conditions":[4.3436003E-1,-2.0158546E-1,1.0630594E0,-5.2696323E-1,-3.1834275E-1,-1.2412824E-1,4.217344E-1,1.0913827E0,-7.1836424E-1,1.6315092E-1,3.5574928E-1,5.699201E-1,8.318534E-1,4.0354037E0,1.7249331E0,1.08292075E-2,3.8047574E-4,1.1627522E-3,5.9562433E-3,4.3393937E-3,6.22117E-4,-7.921681E-4,-5.453694E-3,-1.5586083E-4,-6.4091794E-3,-7.5654485E-3,-1.4152119E-2,-1.118089E-2,-2.7410066E-2,-1.8696094E-2,-2.5717143E-2],"split_indices":[5,5,5,7,7,7,4,3,3,5,4,4,4,7,7,0,0,0,0,0,0,0,0,0,0,0,0,0,0,0,0],"split_type":[0,0,0,0,0,0,0,0,0,0,0,0,0,0,0,0,0,0,0,0,0,0,0,0,0,0,0,0,0,0,0],"sum_hessian":[2.5704892E5,1.7638764E5,8.066128E4,1.1505277E5,6.133487E4,4.459077E4,3.607051E4,7.358235E4,4.147042E4,2.8392389E4,3.2942484E4,1.4368465E4,3.0222307E4,1.0302069E4,2.5768441E4,7.168176E4,1.900592E3,5.6002437E3,3.587018E4,1.9204828E4,9.1875625E3,2.2293799E4,1.0648684E4,7.7063374E3,6.6621274E3,1.7486191E4,1.2736114E4,9.427379E3,8.746903E2,1.7669139E4,8.0993027E3],"tree_param":{"num_deleted":"0","num_feature":"698","num_nodes":"31","size_leaf_vector":"1"}},{"base_weights":[5.134061E-4,-1.2650982E-1,1.4246832E-1,-1.6816795E-1,-4.0768757E-2,6.153568E-2,2.0912308E-1,-3.2525647E-1,-1.5989082E-1,-1.0811351E-1,-6.0013593E-3,8.825929E-3,9.981615E-2,1.5201503E-1,2.4873397E-1,8.147956E-4,-3.2760244E-2,-1.8290704E-2,-1.1934045E-2,8.8325905E-4,-1.2824515E-2,8.842002E-3,-1.8910157E-3,2.0048046E-2,-1.6016263E-4,4.5415394E-2,9.752772E-3,2.3404354E-2,1.264963E-2,3.601723E-2,2.3072792E-2],"categories":[],"categories_nodes":[],"categories_segments":[],"categories_sizes":[],"default_left":[0,0,0,0,0,0,0,0,0,0,0,0,0,0,0,0,0,0,0,0,0,0,0,0,0,0,0,0,0,0,0],"id":14,"left_children":[1,3,5,7,9,11,13,15,17,19,21,23,25,27,29,-1,-1,-1,-1,-1,-1,-1,-1,-1,-1,-1,-1,-1,-1,-1,-1],"loss_changes":[4.6377554E3,4.848308E2,6.552197E2,1.1873071E2,1.0392673E2,1.1068744E2,1.506311E2,3.5784302E0,8.097461E1,3.558162E1,3.5683914E1,4.6125526E1,2.5723877E1,5.7076233E1,7.882715E1,0E0,0E0,0E0,0E0,0E0,0E0,0E0,0E0,0E0,0E0,0E0,0E0,0E0,0E0,0E0,0E0],"parents":[2147483647,0,0,1,1,2,2,3,3,4,4,5,5,6,6,7,7,8,8,9,9,10,10,11,11,12,12,13,13,14,14],"right_children":[2,4,6,8,10,12,14,16,18,20,22,24,26,28,30,-1,-1,-1,-1,-1,-1,-1,-1,-1,-1,-1,-1,-1,-1,-1,-1],"split_conditions":[5.0951306E-2,-4.390112E-1,6.544403E-1,2.00001E0,-5.6530875E-1,-2.2879367E-1,4.0574458E-1,-1.1953765E0,-5.8567244E-1,-6.4714384E-1,-8.9382356E-1,2.00001E0,2.00001E0,-8.5081124E-1,-1.6271969E0,8.147956E-4,-3.2760244E-2,-1.8290704E-2,-1.1934045E-2,8.8325905E-4,-1.2824515E-2,8.842002E-3,-1.8910157E-3,2.0048046E-2,-1.6016263E-4,4.5415394E-2,9.752772E-3,2.3404354E-2,1.264963E-2,3.601723E-2,2.3072792E-2],"split_indices":[5,7,5,532,5,7,7,3,5,3,0,32,28,1,0,0,0,0,0,0,0,0,0,0,0,0,0,0,0,0,0],"split_type":[0,0,0,0,0,0,0,0,0,0,0,0,0,0,0,0,0,0,0,0,0,0,0,0,0,0,0,0,0,0,0],"sum_hessian":[2.572E5,1.3573898E5,1.2146101E5,9.135318E4,4.438581E4,5.4856184E4,6.660482E4,4.5706304E3,8.678255E4,1.5111873E4,2.9273938E4,2.3079049E4,3.1777135E4,2.727975E4,3.9325074E4,3.1918783E1,4.5387114E3,5.5358043E4,3.1424504E4,2.2194563E3,1.2892416E4,3.5201267E3,2.575381E4,1.189952E3,2.1889096E4,2.0264322E2,3.1574492E4,6.4709775E3,2.0808771E4,5.46758E3,3.3857492E4],"tree_param":{"num_deleted":"0","num_feature":"698","num_nodes":"31","size_leaf_vector":"1"}},{"base_weights":[5.822736E-4,-1.2176733E-1,1.845306E-1,-1.8247348E-1,-4.375997E-2,1.121872E-1,2.6663893E-1,-2.0631815E-1,-1.2953079E-1,-8.6090654E-2,9.156471E-3,6.320696E-2,1.6258496E-1,2.2570157E-1,3.5548535E-1,-3.3209078E-2,-1.9814778E-2,-1.8515466E-2,-1.0636183E-2,-1.1925592E-2,-5.0773076E-3,-5.9262886E-5,9.268675E-3,4.1510738E-3,1.3924752E-2,1.1444581E-2,2.1721935E-2,1.7588288E-2,2.8318811E-2,3.4608375E-2,5.4344427E-2],"categories":[],"categories_nodes":[],"categories_segments":[],"categories_sizes":[],"default_left":[0,0,0,0,0,0,0,0,0,0,0,0,0,0,0,0,0,0,0,0,0,0,0,0,0,0,0,0,0,0,0],"id":15,"left_children":[1,3,5,7,9,11,13,15,17,19,21,23,25,27,29,-1,-1,-1,-1,-1,-1,-1,-1,-1,-1,-1,-1,-1,-1,-1,-1],"loss_changes":[5.7845396E3,7.309468E2,6.098091E2,1.09553955E2,1.513188E2,1.3472125E2,1.7481934E2,6.143335E1,3.4721893E1,4.39541E1,2.4449532E1,4.566236E1,7.0724365E1,9.423523E1,2.6612427E1,0E0,0E0,0E0,0E0,0E0,0E0,0E0,0E0,0E0,0E0,0E0,0E0,0E0,0E0,0E0,0E0],"parents":[2147483647,0,0,1,1,2,2,3,3,4,4,5,5,6,6,7,7,8,8,9,9,10,10,11,11,12,12,13,13,14,14],"right_children":[2,4,6,8,10,12,14,16,18,20,22,24,26,28,30,-1,-1,-1,-1,-1,-1,-1,-1,-1,-1,-1,-1,-1,-1,-1,-1],"split_conditions":[2.579592E-1,-4.323508E-1,9.254898E-1,-5.227359E-1,-3.1834275E-1,5.5073228E-2,1.6773022E0,2.00001E0,-1.0116165E0,-1.316522E-1,7.75888E-1,9.822938E-1,6.018401E-1,8.7075776E-1,4.3754306E0,-3.3209078E-2,-1.9814778E-2,-1.8515466E-2,-1.0636183E-2,-1.1925592E-2,-5.0773076E-3,-5.9262886E-5,9.268675E-3,4.1510738E-3,1.3924752E-2,1.1444581E-2,2.1721935E-2,1.7588288E-2,2.8318811E-2,3.4608375E-2,5.4344427E-2],"split_indices":[5,5,5,7,7,7,4,532,5,5,4,4,4,7,7,0,0,0,0,0,0,0,0,0,0,0,0,0,0,0,0],"split_type":[0,0,0,0,0,0,0,0,0,0,0,0,0,0,0,0,0,0,0,0,0,0,0,0,0,0,0,0,0,0,0],"sum_hessian":[2.5702006E5,1.5435453E5,1.0266553E5,8.680253E4,6.7552E4,5.457945E4,4.8086082E4,5.984587E4,2.6956658E4,3.752951E4,3.0022486E4,2.7680127E4,2.689932E4,3.2920836E4,1.5165246E4,3.6481172E3,5.6197754E4,7.924524E3,1.9032135E4,1.935328E4,1.8176232E4,2.6885574E4,3.1369128E3,2.153672E4,6.143407E3,1.4301315E4,1.2598006E4,1.7638824E4,1.5282013E4,1.4445528E4,7.197184E2],"tree_param":{"num_deleted":"0","num_feature":"698","num_nodes":"31","size_leaf_vector":"1"}},{"base_weights":[-2.5777202E-4,5.4708596E-2,-7.9240344E-2,6.6196494E-2,-6.4192414E-3,-3.607774E-2,-1.534603E-1,8.287642E-2,4.7772635E-2,-9.579715E-2,4.6603554E-3,-2.1240503E-2,-1.069949E-1,-1.2574553E-1,-2.1935831E-1,3.9849645E-3,8.910065E-3,-6.7425803E-3,5.3114495E-3,-2.2365466E-2,-8.11765E-3,1.4166957E-3,-8.982333E-3,-7.980549E-3,-1.2645097E-3,-2.2301255E-2,-9.128913E-3,-9.963446E-3,-1.6307896E-2,-1.918027E-2,-2.4952043E-2],"categories":[],"categories_nodes":[],"categories_segments":[],"categories_sizes":[],"default_left":[0,0,0,0,0,0,0,0,0,0,0,0,0,0,0,0,0,0,0,0,0,0,0,0,0,0,0,0,0,0,0],"id":16,"left_children":[1,3,5,7,9,11,13,15,17,19,21,23,25,27,29,-1,-1,-1,-1,-1,-1,-1,-1,-1,-1,-1,-1,-1,-1,-1,-1],"loss_changes":[1.1165957E3,1.0649786E2,3.3810114E2,3.9228333E1,2.3760109E1,7.021686E1,7.08501E1,1.7940033E1,3.7334137E1,4.928688E0,1.9176273E1,2.7780777E1,2.1018463E1,2.6616943E1,9.500305E0,0E0,0E0,0E0,0E0,0E0,0E0,0E0,0E0,0E0,0E0,0E0,0E0,0E0,0E0,0E0,0E0],"parents":[2147483647,0,0,1,1,2,2,3,3,4,4,5,5,6,6,7,7,8,8,9,9,10,10,11,11,12,12,13,13,14,14],"right_children":[2,4,6,8,10,12,14,16,18,20,22,24,26,28,30,-1,-1,-1,-1,-1,-1,-1,-1,-1,-1,-1,-1,-1,-1,-1,-1],"split_conditions":[-1.9106252E-1,3.5574928E-1,7.943132E-1,-6.036236E-1,-9.188589E-1,1.1574868E0,1.9177803E0,-6.847323E-1,2.00001E0,-1.8172779E0,1.5570428E0,-1.1696833E0,-1.5197161E0,7.8579515E-1,2.4411266E0,3.9849645E-3,8.910065E-3,-6.7425803E-3,5.3114495E-3,-2.2365466E-2,-8.11765E-3,1.4166957E-3,-8.982333E-3,-7.980549E-3,-1.2645097E-3,-2.2301255E-2,-9.128913E-3,-9.963446E-3,-1.6307896E-2,-1.918027E-2,-2.4952043E-2],"split_indices":[7,4,4,7,3,7,4,1,32,3,4,3,0,7,4,0,0,0,0,0,0,0,0,0,0,0,0,0,0,0,0],"split_type":[0,0,0,0,0,0,0,0,0,0,0,0,0,0,0,0,0,0,0,0,0,0,0,0,0,0,0,0,0,0,0],"sum_hessian":[2.5719605E5,1.5165503E5,1.0554102E5,1.2766294E5,2.3992086E4,6.673359E4,3.8807426E4,6.7000734E4,6.0662203E4,2.6452769E3,2.1346809E4,5.518841E4,1.1545184E4,2.7320244E4,1.1487183E4,8.468321E3,5.8532414E4,2.6877883E3,5.7974414E4,2.6998267E2,2.3752942E3,1.9396096E4,1.9507136E3,7.062132E3,4.812628E4,1.3749915E3,1.0170192E4,1.6078546E4,1.1241698E4,6.006813E3,5.48037E3],"tree_param":{"num_deleted":"0","num_feature":"698","num_nodes":"31","size_leaf_vector":"1"}},{"base_weights":[-1.5822389E-4,1.1403484E-1,-1.3710584E-1,1.5905474E-1,5.3882122E-2,-6.2449045E-2,-1.9800243E-1,1.2332553E-1,1.8434088E-1,9.582441E-2,7.194955E-3,-2.2822717E-2,-1.0101972E-1,-1.4836882E-1,-2.57758E-1,1.9321144E-2,1.0497136E-2,2.2790134E-2,1.4600903E-2,1.5579122E-3,1.0543857E-2,2.6778018E-3,-3.982271E-3,-6.51603E-4,-7.536945E-3,-8.2063535E-3,-1.785753E-2,-1.0075173E-2,-1.8618463E-2,-2.3446511E-2,-3.012368E-2],"categories":[],"categories_nodes":[],"categories_segments":[],"categories_sizes":[],"default_left":[0,0,0,0,0,0,0,0,0,0,0,0,0,0,0,0,0,0,0,0,0,0,0,0,0,0,0,0,0,0,0],"id":17,"left_children":[1,3,5,7,9,11,13,15,17,19,21,23,25,27,29,-1,-1,-1,-1,-1,-1,-1,-1,-1,-1,-1,-1,-1,-1,-1,-1],"loss_changes":[4.0155396E3,3.7917273E2,5.3079224E2,7.2328E1,1.1736728E2,8.016701E1,1.9067578E2,4.255371E1,7.8265625E1,2.435675E1,2.6118597E1,2.2169598E1,3.9062256E1,6.3236572E1,2.9476074E1,0E0,0E0,0E0,0E0,0E0,0E0,0E0,0E0,0E0,0E0,0E0,0E0,0E0,0E0,0E0,0E0],"parents":[2147483647,0,0,1,1,2,2,3,3,4,4,5,5,6,6,7,7,8,8,9,9,10,10,11,11,12,12,13,13,14,14],"right_children":[2,4,6,8,10,12,14,16,18,20,22,24,26,28,30,-1,-1,-1,-1,-1,-1,-1,-1,-1,-1,-1,-1,-1,-1,-1,-1],"split_conditions":[3.042944E-2,-5.6530875E-1,6.157473E-1,-8.445243E-1,-4.441672E-1,-1.6657156E-1,1.0507381E0,-1.744241E0,-9.2893374E-1,-7.557549E-1,6.6559784E-2,6.687703E-1,8.951507E-1,3.109891E-1,1.4870591E0,1.9321144E-2,1.0497136E-2,2.2790134E-2,1.4600903E-2,1.5579122E-3,1.0543857E-2,2.6778018E-3,-3.982271E-3,-6.51603E-4,-7.536945E-3,-8.2063535E-3,-1.785753E-2,-1.0075173E-2,-1.8618463E-2,-2.3446511E-2,-3.012368E-2],"split_indices":[5,5,5,4,7,7,4,5,5,3,7,4,4,7,5,0,0,0,0,0,0,0,0,0,0,0,0,0,0,0,0],"split_type":[0,0,0,0,0,0,0,0,0,0,0,0,0,0,0,0,0,0,0,0,0,0,0,0,0,0,0,0,0,0,0],"sum_hessian":[2.567712E5,1.4001805E5,1.16753164E5,8.008137E4,5.9936676E4,5.2451613E4,6.430155E4,3.318996E4,4.6891406E4,3.157217E4,2.8364504E4,2.5872545E4,2.6579068E4,3.5127645E4,2.9173906E4,6.901619E3,2.6288342E4,2.1946443E4,2.4944963E4,3.3782185E3,2.8193951E4,2.0024602E4,8.339903E3,1.9745959E4,6.126587E3,2.1360242E4,5.2188257E3,1.5550433E4,1.9577213E4,1.9000934E4,1.0172973E4],"tree_param":{"num_deleted":"0","num_feature":"698","num_nodes":"31","size_leaf_vector":"1"}},{"base_weights":[2.686159E-4,-1.3773052E-1,1.2897544E-2,-2.042178E-1,-1.0706639E-1,2.464851E-2,-8.8683955E-2,-3.2166332E-1,-1.8411002E-1,-1.590075E-1,-9.194039E-2,3.3574183E-2,-6.973859E-2,-7.5030096E-2,-2.1675572E-1,-3.509338E-2,-2.6975561E-2,-1.6945707E-2,-3.0269563E-2,-2.6585246E-2,-1.4817002E-2,-1.5428177E-2,-7.340625E-3,-6.6568106E-3,3.992526E-3,-5.732552E-3,-1.6433146E-2,-5.8982056E-3,-1.6090063E-2,-1.9360099E-2,-3.3620287E-2],"categories":[],"categories_nodes":[],"categories_segments":[],"categories_sizes":[],"default_left":[0,0,0,0,0,0,0,0,0,0,0,0,0,0,0,0,0,0,0,0,0,0,0,0,0,0,0,0,0,0,0],"id":18,"left_children":[1,3,5,7,9,11,13,15,17,19,21,23,25,27,29,-1,-1,-1,-1,-1,-1,-1,-1,-1,-1,-1,-1,-1,-1,-1,-1],"loss_changes":[4.481452E2,4.393286E1,2.812146E2,1.600827E1,1.1579117E1,1.7789651E2,4.2698532E1,1.4144287E0,1.0046936E1,3.8127747E0,1.3196419E1,1.2269951E2,2.1411613E1,3.04113E1,6.442108E0,0E0,0E0,0E0,0E0,0E0,0E0,0E0,0E0,0E0,0E0,0E0,0E0,0E0,0E0,0E0,0E0],"parents":[2147483647,0,0,1,1,2,2,3,3,4,4,5,5,6,6,7,7,8,8,9,9,10,10,11,11,12,12,13,13,14,14],"right_children":[2,4,6,8,10,12,14,16,18,20,22,24,26,28,30,-1,-1,-1,-1,-1,-1,-1,-1,-1,-1,-1,-1,-1,-1,-1,-1],"split_conditions":[-1.2239561E0,-1.9862134E0,1.1580876E0,-2.261567E0,-1.5826372E0,1.2135878E0,1.5257034E0,-7.22564E-1,1.6984668E0,-1.8974078E0,-1.1900897E0,-1.1900897E0,1.318175E0,1.0336033E0,1.5172578E0,-3.509338E-2,-2.6975561E-2,-1.6945707E-2,-3.0269563E-2,-2.6585246E-2,-1.4817002E-2,-1.5428177E-2,-7.340625E-3,-6.6568106E-3,3.992526E-3,-5.732552E-3,-1.6433146E-2,-5.8982056E-3,-1.6090063E-2,-1.9360099E-2,-3.3620287E-2],"split_indices":[3,3,2,0,1,1,0,1,0,3,0,0,0,1,1,0,0,0,0,0,0,0,0,0,0,0,0,0,0,0,0],"split_type":[0,0,0,0,0,0,0,0,0,0,0,0,0,0,0,0,0,0,0,0,0,0,0,0,0,0,0,0,0,0,0],"sum_hessian":[2.5714167E5,2.1558389E4,2.3558328E5,6.802738E3,1.4755652E4,2.1115731E5,2.4425959E4,9.922445E2,5.810493E3,3.325775E3,1.1429877E4,1.9291505E5,1.8242277E4,2.2074193E4,2.351766E3,6.3078705E2,3.614575E2,5.173644E3,6.368491E2,3.0410666E2,3.0216685E3,2.6176921E3,8.812185E3,1.1504551E4,1.8141048E5,1.6127527E4,2.11475E3,1.8599824E4,3.474369E3,1.9720972E3,3.796689E2],"tree_param":{"num_deleted":"0","num_feature":"698","num_nodes":"31","size_leaf_vector":"1"}},{"base_weights":[5.062252E-4,-1.1197772E-1,1.4030688E-1,-1.5420942E-1,-2.5208285E-2,8.304985E-2,2.0962441E-1,-1.8375166E-1,-1.0519495E-1,-7.489474E-2,1.878702E-2,2.6449706E-2,1.19380176E-1,1.3739601E-1,2.4880373E-1,-3.3230297E-2,-1.7472181E-2,1.168207E-2,-1.1053695E-2,1.9195921E-3,-9.168397E-3,1.0286282E-2,-2.0570424E-4,1.5428955E-2,1.1737982E-3,8.738859E-3,1.5684523E-2,2.8824557E-2,1.1297221E-2,3.333975E-2,2.2965124E-2],"categories":[],"categories_nodes":[],"categories_segments":[],"categories_sizes":[],"default_left":[0,0,0,0,0,0,0,0,0,0,0,0,0,0,0,0,0,0,0,0,0,0,0,0,0,0,0,0,0,0,0],"id":19,"left_children":[1,3,5,7,9,11,13,15,17,19,21,23,25,27,29,-1,-1,-1,-1,-1,-1,-1,-1,-1,-1,-1,-1,-1,-1,-1,-1],"loss_changes":[4.041627E3,5.2188806E2,4.5479077E2,1.3869263E2,1.019252E2,1.2904486E2,1.4665503E2,8.0116455E1,4.2741943E1,3.4592796E1,4.3339485E1,4.6143566E1,4.5798645E1,6.713898E1,5.437036E1,0E0,0E0,0E0,0E0,0E0,0E0,0E0,0E0,0E0,0E0,0E0,0E0,0E0,0E0,0E0,0E0],"parents":[2147483647,0,0,1,1,2,2,3,3,4,4,5,5,6,6,7,7,8,8,9,9,10,10,11,11,12,12,13,13,14,14],"right_children":[2,4,6,8,10,12,14,16,18,20,22,24,26,28,30,-1,-1,-1,-1,-1,-1,-1,-1,-1,-1,-1,-1,-1,-1,-1,-1],"split_conditions":[1.3196571E-1,-4.1821155E-1,8.632719E-1,-5.753803E-1,-3.321972E-1,-1.8289351E-1,6.347505E-1,2.00001E0,2.00001E0,-6.821766E-1,-6.6987616E-1,-1.1900897E0,4.7819898E-1,-1.4274938E0,-1.3911611E0,-3.3230297E-2,-1.7472181E-2,1.168207E-2,-1.1053695E-2,1.9195921E-3,-9.168397E-3,1.0286282E-2,-2.0570424E-4,1.5428955E-2,1.1737982E-3,8.738859E-3,1.5684523E-2,2.8824557E-2,1.1297221E-2,3.333975E-2,2.2965124E-2],"split_indices":[5,7,5,5,5,7,4,532,32,3,0,0,4,0,1,0,0,0,0,0,0,0,0,0,0,0,0,0,0,0,0],"split_type":[0,0,0,0,0,0,0,0,0,0,0,0,0,0,0,0,0,0,0,0,0,0,0,0,0,0,0,0,0,0,0],"sum_hessian":[2.5701186E5,1.4242031E5,1.1459154E5,9.5794984E4,4.6625332E4,6.2756336E4,5.18352E4,5.976837E4,3.6026617E4,2.1896096E4,2.4729236E4,2.4534695E4,3.822164E4,1.8230738E4,3.360446E4,3.4228481E3,5.634552E4,8.4599115E2,3.5180625E4,3.315442E3,1.8580652E4,4.91209E3,1.9817146E4,2.5310708E3,2.2003625E4,2.061863E4,1.7603012E4,2.5388916E3,1.5691847E4,6.200661E3,2.74038E4],"tree_param":{"num_deleted":"0","num_feature":"698","num_nodes":"31","size_leaf_vector":"1"}},{"base_weights":[-2.2349472E-4,-1.09822616E-1,1.4299102E-1,-1.358441E-1,4.1558847E-2,6.431793E-2,2.4035774E-1,-1.7104173E-1,-7.225683E-2,9.226027E-3,1.4824225E-1,3.8824704E-2,1.8654038E-1,2.0535025E-1,3.2810324E-1,-3.2395758E-2,-1.6285969E-2,2.4108586E-3,-8.343094E-3,-5.7974947E-3,4.3301187E-3,1.2046817E-2,2.4472091E-2,1.4406455E-2,2.450832E-3,1.6392624E-2,3.7678838E-2,1.47971725E-2,2.441103E-2,3.1654697E-2,4.710346E-2],"categories":[],"categories_nodes":[],"categories_segments":[],"categories_sizes":[],"default_left":[0,0,0,0,0,0,0,0,0,0,0,0,0,0,0,0,0,0,0,0,0,0,0,0,0,0,0,0,0,0,0],"id":20,"left_children":[1,3,5,7,9,11,13,15,17,19,21,23,25,27,29,-1,-1,-1,-1,-1,-1,-1,-1,-1,-1,-1,-1,-1,-1,-1,-1],"loss_changes":[4.0309612E3,5.73073E2,8.528054E2,2.778296E2,7.360718E1,1.9186226E2,1.5276611E2,9.992456E1,4.7632797E1,3.7505074E1,1.3269897E1,7.6764275E1,4.5659454E1,7.9066895E1,2.3285522E1,0E0,0E0,0E0,0E0,0E0,0E0,0E0,0E0,0E0,0E0,0E0,0E0,0E0,0E0,0E0,0E0],"parents":[2147483647,0,0,1,1,2,2,3,3,4,4,5,5,6,6,7,7,8,8,9,9,10,10,11,11,12,12,13,13,14,14],"right_children":[2,4,6,8,10,12,14,16,18,20,22,24,26,28,30,-1,-1,-1,-1,-1,-1,-1,-1,-1,-1,-1,-1,-1,-1,-1,-1],"split_conditions":[-1.8289351E-1,4.3559343E-1,6.018401E-1,-5.227359E-1,1.2471331E0,1.2011584E0,1.8650444E0,2.00001E0,-9.355221E-1,-5.684043E-1,1.9177803E0,-1.2239561E0,1.7676288E0,3.8987252E-1,4.0354037E0,-3.2395758E-2,-1.6285969E-2,2.4108586E-3,-8.343094E-3,-5.7974947E-3,4.3301187E-3,1.2046817E-2,2.4472091E-2,1.4406455E-2,2.450832E-3,1.6392624E-2,3.7678838E-2,1.47971725E-2,2.441103E-2,3.1654697E-2,4.710346E-2],"split_indices":[7,4,4,7,4,7,4,532,3,7,4,3,0,7,7,0,0,0,0,0,0,0,0,0,0,0,0,0,0,0,0],"split_type":[0,0,0,0,0,0,0,0,0,0,0,0,0,0,0,0,0,0,0,0,0,0,0,0,0,0,0,0,0,0,0],"sum_hessian":[2.5680953E5,1.4547825E5,1.1133127E5,1.2413958E5,2.133868E4,6.157767E4,4.97536E4,7.9906836E4,4.4232734E4,1.6376497E4,4.962182E3,5.09515E4,1.0626172E4,3.5566938E4,1.4186667E4,4.0564421E3,7.58504E4,4.595971E3,3.9636766E4,5.5097666E3,1.086673E4,3.8547368E3,1.1074451E3,6.1001562E3,4.4851344E4,9.498928E3,1.1272435E3,1.4341413E4,2.1225523E4,1.3128423E4,1.0582438E3],"tree_param":{"num_deleted":"0","num_feature":"698","num_nodes":"31","size_leaf_vector":"1"}},{"base_weights":[-3.790792E-4,4.061188E-2,-1.1719531E-1,6.53815E-2,-3.8388134E-3,-8.149777E-2,-1.6485736E-1,8.812853E-2,5.1458728E-2,2.2856763E-2,-2.958079E-2,-1.7097063E-1,-7.013219E-2,-1.3363852E-1,-2.114758E-1,5.6969835E-3,9.668244E-3,6.334202E-3,2.6819843E-3,-7.341772E-3,3.0271392E-3,-1.1276731E-2,-2.384881E-3,-1.4380914E-2,-3.3764374E-2,-4.8701945E-3,-1.0728975E-2,-6.6642063E-3,-1.4290611E-2,-2.6739148E-2,-1.9499099E-2],"categories":[],"categories_nodes":[],"categories_segments":[],"categories_sizes":[],"default_left":[0,0,0,0,0,0,0,0,0,0,0,0,0,0,0,0,0,0,0,0,0,0,0,0,0,0,0,0,0,0,0],"id":21,"left_children":[1,3,5,7,9,11,13,15,17,19,21,23,25,27,29,-1,-1,-1,-1,-1,-1,-1,-1,-1,-1,-1,-1,-1,-1,-1,-1],"loss_changes":[1.2322991E3,2.097489E2,1.1372241E2,3.873877E1,4.684686E1,3.88575E1,4.163263E1,1.2373749E1,2.2217804E1,2.3891356E1,1.6545595E1,1.9451683E1,2.7002441E1,1.0637085E1,1.0529053E1,0E0,0E0,0E0,0E0,0E0,0E0,0E0,0E0,0E0,0E0,0E0,0E0,0E0,0E0,0E0,0E0],"parents":[2147483647,0,0,1,1,2,2,3,3,4,4,5,5,6,6,7,7,8,8,9,9,10,10,11,11,12,12,13,13,14,14],"right_children":[2,4,6,8,10,12,14,16,18,20,22,24,26,28,30,-1,-1,-1,-1,-1,-1,-1,-1,-1,-1,-1,-1,-1,-1,-1,-1],"split_conditions":[5.9040475E-1,-1.4182746E-1,1.0969435E0,-9.2893374E-1,-2.2879367E-1,-1.5197161E0,1.3952204E0,-4.6463922E-1,-4.1293675E-1,-1.2489427E0,-1.4274938E0,2.004616E0,7.3311716E-1,-2.7156797E-1,-1.3911611E0,5.6969835E-3,9.668244E-3,6.334202E-3,2.6819843E-3,-7.341772E-3,3.0271392E-3,-1.1276731E-2,-2.384881E-3,-1.4380914E-2,-3.3764374E-2,-4.8701945E-3,-1.0728975E-2,-6.6642063E-3,-1.4290611E-2,-2.6739148E-2,-1.9499099E-2],"split_indices":[5,5,4,5,7,0,5,1,7,0,0,5,7,7,1,0,0,0,0,0,0,0,0,0,0,0,0,0,0,0,0],"split_type":[0,0,0,0,0,0,0,0,0,0,0,0,0,0,0,0,0,0,0,0,0,0,0,0,0,0,0,0,0,0,0],"sum_hessian":[2.5734839E5,1.9050175E5,6.684665E4,1.2233279E5,6.816895E4,3.8222086E4,2.862456E4,4.6445234E4,7.5887555E4,3.346469E4,3.470426E4,4.3064595E3,3.391563E4,1.714619E4,1.1478371E4,1.000574E4,3.6439496E4,5.119481E4,2.4692748E4,2.392366E3,3.1072326E4,2.2359482E3,3.2468314E4,3.7046094E3,6.0185004E2,2.1511436E4,1.2404193E4,2.0845964E3,1.5061594E4,2.6100366E3,8.868334E3],"tree_param":{"num_deleted":"0","num_feature":"698","num_nodes":"31","size_leaf_vector":"1"}},{"base_weights":[-1.6824291E-4,9.510034E-2,-1.1440109E-1,1.1497895E-1,-4.193369E-2,-5.6326043E-2,-2.1663556E-1,2.841868E-1,1.076374E-1,-1.509539E-2,-1.22264735E-1,-3.277272E-2,-1.303451E-1,-1.9025217E-1,-2.8156433E-1,3.0806853E-2,1.9595567E-2,1.3565726E-2,6.984297E-3,3.3524383E-3,-4.955772E-3,-2.5473217E-2,-1.09405955E-2,-1.705452E-2,-2.4297535E-3,-2.5105422E-2,-1.1316675E-2,-1.5159204E-2,-2.1871317E-2,-2.7427906E-2,-3.711208E-2],"categories":[],"categories_nodes":[],"categories_segments":[],"categories_sizes":[],"default_left":[0,0,0,0,0,0,0,0,0,0,0,0,0,0,0,0,0,0,0,0,0,0,0,0,0,0,0,0,0,0,0],"id":22,"left_children":[1,3,5,7,9,11,13,15,17,19,21,23,25,27,29,-1,-1,-1,-1,-1,-1,-1,-1,-1,-1,-1,-1,-1,-1,-1,-1],"loss_changes":[2.7936587E3,3.8129077E2,6.930658E2,1.5182007E2,3.8229607E1,1.2978447E2,7.238843E1,1.0649048E1,1.2405896E2,2.2275242E1,7.5363007E0,6.594057E1,3.7234802E1,3.3056274E1,7.8688354E0,0E0,0E0,0E0,0E0,0E0,0E0,0E0,0E0,0E0,0E0,0E0,0E0,0E0,0E0,0E0,0E0],"parents":[2147483647,0,0,1,1,2,2,3,3,4,4,5,5,6,6,7,7,8,8,9,9,10,10,11,11,12,12,13,13,14,14],"right_children":[2,4,6,8,10,12,14,16,18,20,22,24,26,28,30,-1,-1,-1,-1,-1,-1,-1,-1,-1,-1,-1,-1,-1,-1,-1,-1],"split_conditions":[-2.9179856E-1,4.0871075E-1,7.207868E-1,2.00001E0,1.1202095E0,7.0779806E-1,1.8650444E0,-3.328462E-2,-5.9602445E-1,-5.764611E-1,-1.2475632E0,-1.4722722E0,-1.5276297E0,3.4202585E-1,3.056766E0,3.0806853E-2,1.9595567E-2,1.3565726E-2,6.984297E-3,3.3524383E-3,-4.955772E-3,-2.5473217E-2,-1.09405955E-2,-1.705452E-2,-2.4297535E-3,-2.5105422E-2,-1.1316675E-2,-1.5159204E-2,-2.1871317E-2,-2.7427906E-2,-3.711208E-2],"split_indices":[7,4,4,532,4,7,4,4,7,7,1,0,1,7,4,0,0,0,0,0,0,0,0,0,0,0,0,0,0,0,0],"split_type":[0,0,0,0,0,0,0,0,0,0,0,0,0,0,0,0,0,0,0,0,0,0,0,0,0,0,0,0,0,0,0],"sum_hessian":[2.5670198E5,1.3996953E5,1.1673245E5,1.2223752E5,1.7732008E4,7.4444984E4,4.2287473E4,5.0815005E3,1.17156016E5,1.3292292E4,4.4397163E3,5.647555E4,1.7969428E4,3.0071885E4,1.2215586E4,3.9971047E3,1.0843958E3,6.727639E4,4.9879633E4,5.5136333E3,7.778658E3,3.911712E2,4.048545E3,3.2717017E3,5.320385E4,2.2369785E3,1.573245E4,1.2753893E4,1.7317992E4,1.1300382E4,9.152044E2],"tree_param":{"num_deleted":"0","num_feature":"698","num_nodes":"31","size_leaf_vector":"1"}},{"base_weights":[8.312393E-4,5.8784783E-2,-1.096511E-1,8.5784465E-2,1.7504124E-2,-6.992224E-2,-1.7242678E-1,9.6873775E-2,4.570801E-2,4.4938672E-2,-5.268616E-3,-3.3784878E-2,-9.9372E-2,-1.3099764E-1,-2.012596E-1,5.8710263E-3,1.025865E-2,-4.543416E-3,4.9794856E-3,1.6186174E-2,4.1627297E-3,8.912965E-4,-2.867355E-3,-9.956646E-3,-2.5633704E-3,-7.374727E-3,-1.3625584E-2,-9.565227E-3,-1.6951466E-2,-1.8039327E-2,-2.4876177E-2],"categories":[],"categories_nodes":[],"categories_segments":[],"categories_sizes":[],"default_left":[0,0,0,0,0,0,0,0,0,0,0,0,0,0,0,0,0,0,0,0,0,0,0,0,0,0,0,0,0,0,0],"id":23,"left_children":[1,3,5,7,9,11,13,15,17,19,21,23,25,27,29,-1,-1,-1,-1,-1,-1,-1,-1,-1,-1,-1,-1,-1,-1,-1,-1],"loss_changes":[1.6450795E3,1.8783386E2,2.2046179E2,4.527661E1,4.163504E1,5.7614807E1,4.090027E1,1.73927E1,8.228325E0,1.1696396E1,1.2087218E1,1.30331955E1,2.818332E1,1.9128769E1,1.9977661E1,0E0,0E0,0E0,0E0,0E0,0E0,0E0,0E0,0E0,0E0,0E0,0E0,0E0,0E0,0E0,0E0],"parents":[2147483647,0,0,1,1,2,2,3,3,4,4,5,5,6,6,7,7,8,8,9,9,10,10,11,11,12,12,13,13,14,14],"right_children":[2,4,6,8,10,12,14,16,18,20,22,24,26,28,30,-1,-1,-1,-1,-1,-1,-1,-1,-1,-1,-1,-1,-1,-1,-1,-1],"split_conditions":[3.3304614E-1,-4.5399153E-1,1.0811671E0,-2.8209174E-1,-2.4203551E-1,3.279635E-2,8.951507E-1,-1.2151873E0,-1.1663965E0,2.00001E0,6.6559784E-2,-1.2489427E0,8.318534E-1,1.0010365E0,1.8130363E0,5.8710263E-3,1.025865E-2,-4.543416E-3,4.9794856E-3,1.6186174E-2,4.1627297E-3,8.912965E-4,-2.867355E-3,-9.956646E-3,-2.5633704E-3,-7.374727E-3,-1.3625584E-2,-9.565227E-3,-1.6951466E-2,-1.8039327E-2,-2.4876177E-2],"split_indices":[5,7,5,5,5,7,4,4,2,552,7,0,4,7,5,0,0,0,0,0,0,0,0,0,0,0,0,0,0,0,0],"split_type":[0,0,0,0,0,0,0,0,0,0,0,0,0,0,0,0,0,0,0,0,0,0,0,0,0,0,0,0,0,0,0],"sum_hessian":[2.5692752E5,1.6852706E5,8.840045E4,1.0188677E5,6.664029E4,5.4139367E4,3.4261086E4,7.980344E4,2.208334E4,3.0225885E4,3.6414402E4,2.4310484E4,2.982888E4,1.4061712E4,2.0199373E4,1.0391941E4,6.941149E4,9.4729364E2,2.1136047E4,8.3113245E2,2.9394752E4,2.267545E4,1.373895E4,2.679023E3,2.1631463E4,1.7602611E4,1.2226269E4,7.334575E3,6.727136E3,1.4037782E4,6.1615913E3],"tree_param":{"num_deleted":"0","num_feature":"698","num_nodes":"31","size_leaf_vector":"1"}},{"base_weights":[2.5639194E-4,-1.0286755E-1,1.371838E-1,-1.4590445E-1,-2.187494E-2,9.183706E-2,2.1170515E-1,-1.7332698E-1,-9.557498E-2,-8.169223E-2,1.2898027E-2,3.5423245E-2,1.3497865E-1,1.6980167E-1,2.6326862E-1,-3.0932177E-2,-1.6526995E-2,-4.87161E-3,-1.1674172E-2,1.21171465E-2,-8.865266E-3,8.44676E-3,-4.8727068E-4,2.326188E-2,2.2854349E-3,2.5913462E-2,1.2222125E-2,1.1748715E-2,1.9825459E-2,4.757713E-2,2.5712127E-2],"categories":[],"categories_nodes":[],"categories_segments":[],"categories_sizes":[],"default_left":[0,0,0,0,0,0,0,0,0,0,0,0,0,0,0,0,0,0,0,0,0,0,0,0,0,0,0,0,0,0,0],"id":24,"left_children":[1,3,5,7,9,11,13,15,17,19,21,23,25,27,29,-1,-1,-1,-1,-1,-1,-1,-1,-1,-1,-1,-1,-1,-1,-1,-1],"loss_changes":[3.623953E3,5.1027307E2,3.725564E2,1.3192102E2,1.0566174E2,1.6681897E2,9.007385E1,6.775012E1,3.3437622E1,2.637915E1,4.085781E1,7.361908E1,6.148938E1,3.423053E1,2.4302124E1,0E0,0E0,0E0,0E0,0E0,0E0,0E0,0E0,0E0,0E0,0E0,0E0,0E0,0E0,0E0,0E0],"parents":[2147483647,0,0,1,1,2,2,3,3,4,4,5,5,6,6,7,7,8,8,9,9,10,10,11,11,12,12,13,13,14,14],"right_children":[2,4,6,8,10,12,14,16,18,20,22,24,26,28,30,-1,-1,-1,-1,-1,-1,-1,-1,-1,-1,-1,-1,-1,-1,-1,-1],"split_conditions":[1.8426725E-1,-4.2358032E-1,9.822938E-1,-5.2390355E-1,-4.219993E-1,3.279635E-2,1.1997758E0,2.00001E0,-3.4790233E-1,2.00001E0,-6.6987616E-1,2.00001E0,-1.6271969E0,2.178268E-2,-3.268627E0,-3.0932177E-2,-1.6526995E-2,-4.87161E-3,-1.1674172E-2,1.21171465E-2,-8.865266E-3,8.44676E-3,-4.8727068E-4,2.326188E-2,2.2854349E-3,2.5913462E-2,1.2222125E-2,1.1748715E-2,1.9825459E-2,4.757713E-2,2.5712127E-2],"split_indices":[5,7,4,5,5,7,5,532,0,32,0,32,0,7,1,0,0,0,0,0,0,0,0,0,0,0,0,0,0,0,0],"split_type":[0,0,0,0,0,0,0,0,0,0,0,0,0,0,0,0,0,0,0,0,0,0,0,0,0,0,0,0,0,0,0],"sum_hessian":[2.566429E5,1.4639152E5,1.1025138E5,9.559472E4,5.07968E4,6.854408E4,4.1707305E4,6.1877613E4,3.3717105E4,1.867326E4,3.2123541E4,2.9703854E4,3.8840227E4,2.3011287E4,1.8696018E4,3.4588164E3,5.8418797E4,1.0492386E4,2.3224717E4,6.188977E2,1.8054361E4,6.388966E3,2.5734574E4,1.778779E3,2.7925074E4,3.6172827E3,3.522294E4,8.1082695E3,1.4903017E4,5.2348975E2,1.8172527E4],"tree_param":{"num_deleted":"0","num_feature":"698","num_nodes":"31","size_leaf_vector":"1"}},{"base_weights":[1.0861332E-4,-1.16613194E-1,1.5638925E-1,-1.6732393E-1,-4.1436363E-2,7.660778E-2,2.1500807E-1,-1.9598807E-1,-1.2981458E-1,-8.5908696E-2,-2.5709593E-3,3.360658E-2,1.11424096E-1,1.5736511E-1,2.4784242E-1,-3.3004533E-2,-1.8815357E-2,-1.5012029E-2,-6.975617E-3,-1.17105255E-2,-5.1061E-3,-2.4012856E-3,2.7214137E-3,9.737058E-4,6.646575E-3,8.87338E-3,1.3779118E-2,1.3856515E-2,2.1951145E-2,2.377413E-2,4.2314194E-2],"categories":[],"categories_nodes":[],"categories_segments":[],"categories_sizes":[],"default_left":[0,0,0,0,0,0,0,0,0,0,0,0,0,0,0,0,0,0,0,0,0,0,0,0,0,0,0,0,0,0,0],"id":25,"left_children":[1,3,5,7,9,11,13,15,17,19,21,23,25,27,29,-1,-1,-1,-1,-1,-1,-1,-1,-1,-1,-1,-1,-1,-1,-1,-1],"loss_changes":[4.684752E3,5.6046265E2,5.1349976E2,9.43689E1,1.0236396E2,6.962567E1,1.1975928E2,5.2202637E1,4.63714E1,3.0019958E1,2.0185223E1,1.632104E1,1.536319E1,2.6809937E1,7.130176E1,0E0,0E0,0E0,0E0,0E0,0E0,0E0,0E0,0E0,0E0,0E0,0E0,0E0,0E0,0E0,0E0],"parents":[2147483647,0,0,1,1,2,2,3,3,4,4,5,5,6,6,7,7,8,8,9,9,10,10,11,11,12,12,13,13,14,14],"right_children":[2,4,6,8,10,12,14,16,18,20,22,24,26,28,30,-1,-1,-1,-1,-1,-1,-1,-1,-1,-1,-1,-1,-1,-1,-1,-1],"split_conditions":[2.0466343E-1,-4.0240157E-1,7.350157E-1,-8.287512E-1,-4.0741104E-1,-1.0616748E-1,3.735185E-1,2.00001E0,-3.6788785E-1,-1.316522E-1,1.13480985E-2,4.577775E-1,5.04519E-1,8.782442E-1,4.3754306E0,-3.3004533E-2,-1.8815357E-2,-1.5012029E-2,-6.975617E-3,-1.17105255E-2,-5.1061E-3,-2.4012856E-3,2.7214137E-3,9.737058E-4,6.646575E-3,8.87338E-3,1.3779118E-2,1.3856515E-2,2.1951145E-2,2.377413E-2,4.2314194E-2],"split_indices":[5,5,5,5,7,7,7,532,7,5,7,5,5,0,7,0,0,0,0,0,0,0,0,0,0,0,0,0,0,0,0],"split_type":[0,0,0,0,0,0,0,0,0,0,0,0,0,0,0,0,0,0,0,0,0,0,0,0,0,0,0,0,0,0,0],"sum_hessian":[2.5681833E5,1.4701616E5,1.09802164E5,8.7793555E4,5.922261E4,4.650718E4,6.3294984E4,4.9761938E4,3.8031617E4,2.7618502E4,3.1604107E4,2.0808646E4,2.5698533E4,2.2971947E4,4.0323035E4,2.7453186E3,4.7016617E4,2.8420996E4,9.610621E3,1.4571427E4,1.3047075E4,1.8375803E4,1.3228304E4,1.2053819E4,8.754828E3,1.3814643E4,1.1883892E4,1.7639143E4,5.3328057E3,3.812836E4,2.1946763E3],"tree_param":{"num_deleted":"0","num_feature":"698","num_nodes":"31","size_leaf_vector":"1"}},{"base_weights":[5.780965E-4,2.7682345E-2,-1.15040235E-1,-7.21703E-2,3.5150547E-2,-8.137905E-2,-1.6944145E-1,-1.3949245E-1,-4.8874993E-2,3.902981E-2,-7.0791565E-2,-1.5134068E-1,-6.930109E-2,-2.2914279E-1,-1.4900185E-1,-1.8266095E-2,-9.025176E-3,-1.1082901E-2,-3.1920932E-3,-2.004462E-3,4.6584574E-3,-5.747655E-3,-2.0721806E-2,-1.9211387E-2,-1.2347656E-2,-1.7069498E-2,-6.1878874E-3,-2.7294448E-2,-2.033439E-2,-1.3254366E-2,-2.2173526E-2],"categories":[],"categories_nodes":[],"categories_segments":[],"categories_sizes":[],"default_left":[0,0,0,0,0,0,0,0,0,0,0,0,0,0,0,0,0,0,0,0,0,0,0,0,0,0,0,0,0,0,0],"id":26,"left_children":[1,3,5,7,9,11,13,15,17,19,21,23,25,27,29,-1,-1,-1,-1,-1,-1,-1,-1,-1,-1,-1,-1,-1,-1,-1,-1],"loss_changes":[8.049468E2,1.5517426E2,8.931378E1,2.2702545E1,7.956961E1,2.5454712E1,2.2718018E1,7.895111E0,1.1297804E1,8.335324E1,1.2411465E1,5.01593E0,1.9331696E1,5.3161163E0,1.6600891E1,0E0,0E0,0E0,0E0,0E0,0E0,0E0,0E0,0E0,0E0,0E0,0E0,0E0,0E0,0E0,0E0],"parents":[2147483647,0,0,1,1,2,2,3,3,4,4,5,5,6,6,7,7,8,8,9,9,10,10,11,11,12,12,13,13,14,14],"right_children":[2,4,6,8,10,12,14,16,18,20,22,24,26,28,30,-1,-1,-1,-1,-1,-1,-1,-1,-1,-1,-1,-1,-1,-1,-1,-1],"split_conditions":[7.943132E-1,-1.1696833E0,1.5953362E0,-1.0026207E0,1.6340603E0,-1.1592207E0,-1.0312138E0,-6.727828E-1,-1.7121742E0,-8.781318E-1,1.5706822E0,-1.2548271E0,-1.6880842E0,-1.3911611E0,2.661001E0,-1.8266095E-2,-9.025176E-3,-1.1082901E-2,-3.1920932E-3,-2.004462E-3,4.6584574E-3,-5.747655E-3,-2.0721806E-2,-1.9211387E-2,-1.2347656E-2,-1.7069498E-2,-6.1878874E-3,-2.7294448E-2,-2.033439E-2,-1.3254366E-2,-2.2173526E-2],"split_indices":[4,3,4,0,0,1,3,1,1,0,2,3,0,1,4,0,0,0,0,0,0,0,0,0,0,0,0,0,0,0,0],"split_type":[0,0,0,0,0,0,0,0,0,0,0,0,0,0,0,0,0,0,0,0,0,0,0,0,0,0,0,0,0,0,0],"sum_hessian":[2.5686189E5,2.0808222E5,4.877967E4,1.4479339E4,1.9360288E5,3.0135555E4,1.864412E4,3.7209658E3,1.0758373E4,1.8676477E5,6.8381035E3,4.434892E3,2.5700662E4,4.752497E3,1.3891621E4,1.9812913E3,1.7396746E3,2.3103372E3,8.448036E3,2.1176168E4,1.6558861E5,6.231354E3,6.067492E2,1.7980039E3,2.6368884E3,1.7515122E3,2.394915E4,1.7580596E3,2.9944377E3,1.1330554E4,2.5610679E3],"tree_param":{"num_deleted":"0","num_feature":"698","num_nodes":"31","size_leaf_vector":"1"}},{"base_weights":[-2.0171194E-4,1.012528E-1,-1.2442531E-1,1.4630388E-1,5.6873053E-2,-5.25237E-2,-1.7586242E-1,1.0646102E-1,1.7175288E-1,9.4811946E-2,1.42874E-2,-9.61305E-3,-7.877903E-2,-1.219576E-1,-2.2072391E-1,2.1643756E-2,9.850206E-3,2.1079596E-2,1.4393628E-2,5.2181664E-3,1.0793052E-2,3.5294977E-3,-2.7388707E-3,-1.1120691E-2,2.4899335E-5,-6.527681E-3,-1.4175202E-2,-5.906867E-3,-1.4739727E-2,-1.8585673E-2,-2.5663523E-2],"categories":[],"categories_nodes":[],"categories_segments":[],"categories_sizes":[],"default_left":[0,0,0,0,0,0,0,0,0,0,0,0,0,0,0,0,0,0,0,0,0,0,0,0,0,0,0,0,0,0,0],"id":27,"left_children":[1,3,5,7,9,11,13,15,17,19,21,23,25,27,29,-1,-1,-1,-1,-1,-1,-1,-1,-1,-1,-1,-1,-1,-1,-1,-1],"loss_changes":[3.2338313E3,2.8237964E2,4.2660864E2,7.104944E1,1.14954895E2,5.4198868E1,1.6258838E2,2.3893188E1,4.6418335E1,2.1038086E1,2.9351707E1,1.8297884E1,2.5367966E1,4.8861298E1,4.5905273E1,0E0,0E0,0E0,0E0,0E0,0E0,0E0,0E0,0E0,0E0,0E0,0E0,0E0,0E0,0E0,0E0],"parents":[2147483647,0,0,1,1,2,2,3,3,4,4,5,5,6,6,7,7,8,8,9,9,10,10,11,11,12,12,13,13,14,14],"right_children":[2,4,6,8,10,12,14,16,18,20,22,24,26,28,30,-1,-1,-1,-1,-1,-1,-1,-1,-1,-1,-1,-1,-1,-1,-1,-1],"split_conditions":[2.0535232E-2,-6.811196E-1,5.535242E-1,-9.1777164E-1,-4.684159E-1,-3.2505178E-1,7.3900235E-1,-2.2017531E0,-1.0690583E0,-6.700546E-1,-4.007767E-2,-1.1629839E0,8.7407905E-1,-4.007767E-2,1.1791201E0,2.1643756E-2,9.850206E-3,2.1079596E-2,1.4393628E-2,5.2181664E-3,1.0793052E-2,3.5294977E-3,-2.7388707E-3,-1.1120691E-2,2.4899335E-5,-6.527681E-3,-1.4175202E-2,-5.906867E-3,-1.4739727E-2,-1.8585673E-2,-2.5663523E-2],"split_indices":[5,5,5,4,7,7,4,5,5,4,7,0,4,7,5,0,0,0,0,0,0,0,0,0,0,0,0,0,0,0,0],"split_type":[0,0,0,0,0,0,0,0,0,0,0,0,0,0,0,0,0,0,0,0,0,0,0,0,0,0,0,0,0,0,0],"sum_hessian":[2.5658927E5,1.4123862E5,1.1535065E5,7.008806E4,7.115056E4,4.8106613E4,6.724403E4,2.732046E4,4.2767598E4,3.7627543E4,3.3523016E4,1.8261736E4,2.9844877E4,3.0545176E4,3.669886E4,1.8419746E3,2.5478486E4,1.779049E4,2.4977107E4,8.85552E3,2.8772023E4,2.228834E4,1.1234676E4,1.6149587E3,1.6646777E4,2.4577238E4,5.267638E3,8.798324E3,2.1746852E4,1.862325E4,1.8075607E4],"tree_param":{"num_deleted":"0","num_feature":"698","num_nodes":"31","size_leaf_vector":"1"}},{"base_weights":[1.905689E-4,5.026286E-2,-9.0587646E-2,6.540911E-2,-1.480388E-2,-5.0105013E-2,-1.6125306E-1,7.8652374E-2,2.6776195E-2,3.7794702E-3,-1.00695245E-1,-3.4294672E-2,-1.22477844E-1,-1.4267883E-1,-2.184E-1,9.158245E-3,6.4319493E-3,3.1321016E-3,-6.7789457E-3,5.3117783E-3,-1.7202661E-3,-8.586786E-3,-1.674173E-2,-1.7528879E-3,-7.400079E-3,-1.0681526E-2,-2.3360152E-2,-1.3024314E-2,-1.8796831E-2,-1.8860867E-2,-2.5346158E-2],"categories":[],"categories_nodes":[],"categories_segments":[],"categories_sizes":[],"default_left":[0,0,0,0,0,0,0,0,0,0,0,0,0,0,0,0,0,0,0,0,0,0,0,0,0,0,0,0,0,0,0],"id":28,"left_children":[1,3,5,7,9,11,13,15,17,19,21,23,25,27,29,-1,-1,-1,-1,-1,-1,-1,-1,-1,-1,-1,-1,-1,-1,-1,-1],"loss_changes":[1.1678436E3,1.631907E2,2.6128046E2,6.871997E1,4.9908817E1,6.64431E1,3.5279846E1,1.8532288E1,1.4740173E1,2.6613613E1,5.488003E0,3.1726841E1,1.809555E1,1.4117126E1,8.473785E0,0E0,0E0,0E0,0E0,0E0,0E0,0E0,0E0,0E0,0E0,0E0,0E0,0E0,0E0,0E0,0E0],"parents":[2147483647,0,0,1,1,2,2,3,3,4,4,5,5,6,6,7,7,8,8,9,9,10,10,11,11,12,12,13,13,14,14],"right_children":[2,4,6,8,10,12,14,16,18,20,22,24,26,28,30,-1,-1,-1,-1,-1,-1,-1,-1,-1,-1,-1,-1,-1,-1,-1,-1],"split_conditions":[-7.881143E-2,2.9262602E-1,8.7407905E-1,-4.286303E-1,1.2738347E0,1.2974086E0,1.7249331E0,-6.6321963E-1,1.4788632E0,-5.8039236E-1,2.032021E0,2.804647E-1,4.0354037E0,2.1006224E0,1.9177803E0,9.158245E-3,6.4319493E-3,3.1321016E-3,-6.7789457E-3,5.3117783E-3,-1.7202661E-3,-8.586786E-3,-1.674173E-2,-1.7528879E-3,-7.400079E-3,-1.0681526E-2,-2.3360152E-2,-1.3024314E-2,-1.8796831E-2,-1.8860867E-2,-2.5346158E-2],"split_indices":[7,4,4,7,4,7,7,7,0,7,4,4,7,4,4,0,0,0,0,0,0,0,0,0,0,0,0,0,0,0,0],"split_type":[0,0,0,0,0,0,0,0,0,0,0,0,0,0,0,0,0,0,0,0,0,0,0,0,0,0,0,0,0,0,0],"sum_hessian":[2.5692253E5,1.6558697E5,9.1335555E4,1.3431995E5,3.1267027E4,5.8070164E4,3.326539E4,1.00029164E5,3.4290785E4,2.5706217E4,5.5608096E3,4.765999E4,1.0410177E4,2.5108104E4,8.1572866E3,5.2585234E4,4.7443926E4,3.2718982E4,1.5718033E3,7.669734E3,1.8036484E4,4.55161E3,1.00919965E3,3.3511355E4,1.4148633E4,9.12587E3,1.2843062E3,1.9702127E4,5.4059766E3,4.4135415E3,3.743745E3],"tree_param":{"num_deleted":"0","num_feature":"698","num_nodes":"31","size_leaf_vector":"1"}},{"base_weights":[-8.154218E-4,-1.0913074E-1,1.1402263E-1,-1.4689422E-1,-4.121727E-2,4.9582858E-2,1.6755104E-1,-2.926195E-1,-1.3918886E-1,-1.1429054E-1,-2.0535208E-2,6.877144E-3,8.704675E-2,1.0798506E-1,2.0676446E-1,-3.0783167E-2,-2.393784E-2,-1.6047744E-2,-9.282581E-3,-2.9801368E-3,-1.3601174E-2,-5.7962844E-3,1.2936271E-3,1.7858384E-2,-3.2332994E-4,5.439379E-3,1.2510413E-2,2.5087884E-2,9.097205E-3,2.6777474E-2,1.8437415E-2],"categories":[],"categories_nodes":[],"categories_segments":[],"categories_sizes":[],"default_left":[0,0,0,0,0,0,0,0,0,0,0,0,0,0,0,0,0,0,0,0,0,0,0,0,0,0,0,0,0,0,0],"id":29,"left_children":[1,3,5,7,9,11,13,15,17,19,21,23,25,27,29,-1,-1,-1,-1,-1,-1,-1,-1,-1,-1,-1,-1,-1,-1,-1,-1],"loss_changes":[3.192123E3,3.386931E2,4.296554E2,9.52583E1,7.132287E1,9.043085E1,1.5890894E2,3.3776855E0,7.9548096E1,1.91017E1,4.6083145E1,4.585689E1,3.7409195E1,6.564813E1,5.599878E1,0E0,0E0,0E0,0E0,0E0,0E0,0E0,0E0,0E0,0E0,0E0,0E0,0E0,0E0,0E0,0E0],"parents":[2147483647,0,0,1,1,2,2,3,3,4,4,5,5,6,6,7,7,8,8,9,9,10,10,11,11,12,12,13,13,14,14],"right_children":[2,4,6,8,10,12,14,16,18,20,22,24,26,28,30,-1,-1,-1,-1,-1,-1,-1,-1,-1,-1,-1,-1,-1,-1,-1,-1],"split_conditions":[5.0951306E-2,-4.6373448E-1,6.6767246E-1,2.00001E0,-7.705136E-1,-1.5816474E-1,6.8659776E-1,4.600319E-2,-5.2390355E-1,-5.2125764E-1,-2.1412249E-1,2.00001E0,3.4260035E-1,-1.6271969E0,-8.826175E-1,-3.0783167E-2,-2.393784E-2,-1.6047744E-2,-9.282581E-3,-2.9801368E-3,-1.3601174E-2,-5.7962844E-3,1.2936271E-3,1.7858384E-2,-3.2332994E-4,5.439379E-3,1.2510413E-2,2.5087884E-2,9.097205E-3,2.6777474E-2,1.8437415E-2],"split_indices":[5,7,5,532,5,7,4,4,5,1,7,32,4,0,1,0,0,0,0,0,0,0,0,0,0,0,0,0,0,0,0],"split_type":[0,0,0,0,0,0,0,0,0,0,0,0,0,0,0,0,0,0,0,0,0,0,0,0,0,0,0,0,0,0,0],"sum_hessian":[2.5662594E5,1.3206356E5,1.24562375E5,8.4870125E4,4.719343E4,5.6521414E4,6.804096E4,4.2603604E3,8.0609766E4,1.0409688E4,3.6783742E4,2.6413459E4,3.0107955E4,2.7012377E4,4.1028586E4,3.3098738E3,9.5048645E2,5.524184E4,2.5367928E4,2.1293813E3,8.280308E3,1.7365262E4,1.9418479E4,1.4678666E3,2.4945594E4,1.6205866E4,1.3902089E4,2.872473E3,2.4139904E4,1.1011885E4,3.0016701E4],"tree_param":{"num_deleted":"0","num_feature":"698","num_nodes":"31","size_leaf_vector":"1"}},{"base_weights":[-1.0555302E-3,-1.24772705E-1,1.2716223E-1,-1.7740202E-1,-6.980779E-2,5.4420784E-2,1.9709545E-1,-3.1847656E-1,-1.7009106E-1,-9.880375E-2,-3.4006406E-2,2.4119088E-2,9.019138E-2,1.6512115E-1,2.4748005E-1,-3.315286E-2,-1.854606E-2,-1.7829148E-2,-7.5946674E-3,-1.1284287E-2,-5.636825E-3,4.0407977E-3,-4.055848E-3,7.638756E-3,4.6628524E-4,3.717459E-2,8.759248E-3,3.9902765E-2,1.6037008E-2,2.1941265E-2,3.323755E-2],"categories":[],"categories_nodes":[],"categories_segments":[],"categories_sizes":[],"default_left":[0,0,0,0,0,0,0,0,0,0,0,0,0,0,0,0,0,0,0,0,0,0,0,0,0,0,0,0,0,0,0],"id":30,"left_children":[1,3,5,7,9,11,13,15,17,19,21,23,25,27,29,-1,-1,-1,-1,-1,-1,-1,-1,-1,-1,-1,-1,-1,-1,-1,-1],"loss_changes":[4.0707593E3,3.777948E2,6.4105774E2,6.875928E1,6.631656E1,6.69521E1,1.03466064E2,5.6436462E0,4.895874E1,2.102237E1,1.3941101E1,3.400978E1,2.0696442E1,4.362036E1,5.9358154E1,0E0,0E0,0E0,0E0,0E0,0E0,0E0,0E0,0E0,0E0,0E0,0E0,0E0,0E0,0E0,0E0],"parents":[2147483647,0,0,1,1,2,2,3,3,4,4,5,5,6,6,7,7,8,8,9,9,10,10,11,11,12,12,13,13,14,14],"right_children":[2,4,6,8,10,12,14,16,18,20,22,24,26,28,30,-1,-1,-1,-1,-1,-1,-1,-1,-1,-1,-1,-1,-1,-1,-1,-1],"split_conditions":[5.0951306E-2,-6.1691517E-1,7.350157E-1,2.00001E0,-2.4203551E-1,3.9966273E-1,1.3952204E0,6.445693E-1,8.618895E-1,4.4535592E-1,-1.0312138E0,-5.426988E-1,-2.2171504E0,2.00001E0,1.0602906E0,-3.315286E-2,-1.854606E-2,-1.7829148E-2,-7.5946674E-3,-1.1284287E-2,-5.636825E-3,4.0407977E-3,-4.055848E-3,7.638756E-3,4.6628524E-4,3.717459E-2,8.759248E-3,3.9902765E-2,1.6037008E-2,2.1941265E-2,3.323755E-2],"split_indices":[5,5,5,532,5,5,5,0,0,0,3,3,3,384,0,0,0,0,0,0,0,0,0,0,0,0,0,0,0,0,0],"split_type":[0,0,0,0,0,0,0,0,0,0,0,0,0,0,0,0,0,0,0,0,0,0,0,0,0,0,0,0,0,0,0],"sum_hessian":[2.5662195E5,1.3060315E5,1.26018805E5,6.671797E4,6.388518E4,6.177008E4,6.424873E4,3.2850994E3,6.343287E4,3.529643E4,2.858875E4,3.3442348E4,2.832773E4,3.930797E4,2.494076E4,2.9901968E3,2.9490237E2,5.8349477E4,5.0833945E3,2.6520785E4,8.775645E3,2.3130784E3,2.6275672E4,9.070867E3,2.437148E4,2.5778943E2,2.8069941E4,7.808719E2,3.8527098E4,1.874653E4,6.194231E3],"tree_param":{"num_deleted":"0","num_feature":"698","num_nodes":"31","size_leaf_vector":"1"}},{"base_weights":[-9.147051E-4,4.441943E-2,-6.995935E-2,5.181836E-2,-2.8932944E-2,-2.7606593E-2,-1.2708123E-1,7.2046086E-2,3.3190764E-2,-9.057939E-2,-1.465727E-2,-2.1875909E-2,-1.8103355E-1,-1.06247835E-1,-1.9547054E-1,4.770249E-3,7.936473E-3,-6.674652E-3,3.773224E-3,-3.975237E-3,-1.1741003E-2,-2.8088046E-4,-7.724249E-3,-1.14614675E-2,-1.5474522E-3,-3.201477E-2,-1.5336675E-2,-1.7028932E-2,-9.443057E-3,-1.8693723E-2,-2.8185144E-2],"categories":[],"categories_nodes":[],"categories_segments":[],"categories_sizes":[],"default_left":[0,0,0,0,0,0,0,0,0,0,0,0,0,0,0,0,0,0,0,0,0,0,0,0,0,0,0,0,0,0,0],"id":31,"left_children":[1,3,5,7,9,11,13,15,17,19,21,23,25,27,29,-1,-1,-1,-1,-1,-1,-1,-1,-1,-1,-1,-1,-1,-1,-1,-1],"loss_changes":[8.04691E2,8.422659E1,2.4650836E2,5.3113922E1,1.251284E1,5.14432E1,6.179059E1,1.2036591E1,3.331111E1,3.6413612E0,8.562583E0,3.348487E1,8.059296E0,2.5151398E1,7.41333E0,0E0,0E0,0E0,0E0,0E0,0E0,0E0,0E0,0E0,0E0,0E0,0E0,0E0,0E0,0E0,0E0],"parents":[2147483647,0,0,1,1,2,2,3,3,4,4,5,5,6,6,7,7,8,8,9,9,10,10,11,11,12,12,13,13,14,14],"right_children":[2,4,6,8,10,12,14,16,18,20,22,24,26,28,30,-1,-1,-1,-1,-1,-1,-1,-1,-1,-1,-1,-1,-1,-1,-1,-1],"split_conditions":[-1.7475751E-1,6.687703E-1,6.018401E-1,-6.191139E-1,-7.1836424E-1,3.0981417E0,1.9729655E0,-4.4605064E-1,2.00001E0,-4.827004E-1,1.5570428E0,-1.5197161E0,-1.8598557E0,-1.2475632E0,3.056766E0,4.770249E-3,7.936473E-3,-6.674652E-3,3.773224E-3,-3.975237E-3,-1.1741003E-2,-2.8088046E-4,-7.724249E-3,-1.14614675E-2,-1.5474522E-3,-3.201477E-2,-1.5336675E-2,-1.7028932E-2,-9.443057E-3,-1.8693723E-2,-2.8185144E-2],"split_indices":[7,4,4,7,3,7,4,1,32,7,4,0,1,1,4,0,0,0,0,0,0,0,0,0,0,0,0,0,0,0,0],"split_type":[0,0,0,0,0,0,0,0,0,0,0,0,0,0,0,0,0,0,0,0,0,0,0,0,0,0,0,0,0,0,0],"sum_hessian":[2.5708128E5,1.551871E5,1.0189419E5,1.4096816E5,1.4218926E4,5.851213E4,4.338206E4,6.7580055E4,7.338811E4,2.6725867E3,1.1546339E4,5.640642E4,2.1057063E3,3.3254355E4,1.0127703E4,1.5622686E4,5.1957367E4,3.1894348E3,7.019867E4,9.242333E2,1.7483534E3,9.709254E3,1.8370851E3,3.641019E3,5.2765406E4,3.4755576E2,1.7581504E3,5.1782734E3,2.8076084E4,9.220046E3,9.076573E2],"tree_param":{"num_deleted":"0","num_feature":"698","num_nodes":"31","size_leaf_vector":"1"}},{"base_weights":[1.5255772E-4,9.574239E-2,-1.1682673E-1,1.3599342E-1,5.519811E-2,-5.346798E-2,-1.7217869E-1,2.788105E-1,1.275534E-1,8.019854E-2,-3.75993E-3,-2.945013E-2,-9.657158E-2,-1.3049078E-1,-2.3164399E-1,1.9406227E-2,2.897746E-2,1.0052852E-2,1.5244031E-2,1.0239056E-2,5.279209E-3,-5.905721E-3,1.0750233E-3,-1.0917214E-2,-1.9321023E-3,-6.0504233E-3,-1.3479826E-2,-2.2966398E-2,-1.1698814E-2,-2.0439168E-2,-2.6896104E-2],"categories":[],"categories_nodes":[],"categories_segments":[],"categories_sizes":[],"default_left":[0,0,0,0,0,0,0,0,0,0,0,0,0,0,0,0,0,0,0,0,0,0,0,0,0,0,0,0,0,0,0],"id":32,"left_children":[1,3,5,7,9,11,13,15,17,19,21,23,25,27,29,-1,-1,-1,-1,-1,-1,-1,-1,-1,-1,-1,-1,-1,-1,-1,-1],"loss_changes":[2.8674805E3,2.3029309E2,4.0440918E2,8.532385E1,1.0362906E2,5.566365E1,1.5254309E2,3.6146545E0,4.495642E1,3.0022034E1,1.6799063E1,2.7882582E1,2.6518951E1,4.8427063E1,2.5739258E1,0E0,0E0,0E0,0E0,0E0,0E0,0E0,0E0,0E0,0E0,0E0,0E0,0E0,0E0,0E0,0E0],"parents":[2147483647,0,0,1,1,2,2,3,3,4,4,5,5,6,6,7,7,8,8,9,9,10,10,11,11,12,12,13,13,14,14],"right_children":[2,4,6,8,10,12,14,16,18,20,22,24,26,28,30,-1,-1,-1,-1,-1,-1,-1,-1,-1,-1,-1,-1,-1,-1,-1,-1],"split_conditions":[1.0331979E-2,-6.811196E-1,6.157473E-1,2.00001E0,-2.9876933E-1,4.3972805E-2,1.1446998E0,-5.9375405E-1,-8.2467186E-1,-5.722907E-1,-6.4714384E-1,-1.0655857E0,2.5669208E-1,-1.4722722E0,1.9177803E0,1.9406227E-2,2.897746E-2,1.0052852E-2,1.5244031E-2,1.0239056E-2,5.279209E-3,-5.905721E-3,1.0750233E-3,-1.0917214E-2,-1.9321023E-3,-6.0504233E-3,-1.3479826E-2,-2.2966398E-2,-1.1698814E-2,-2.0439168E-2,-2.6896104E-2],"split_indices":[5,5,5,532,7,7,4,1,4,7,3,0,4,0,4,0,0,0,0,0,0,0,0,0,0,0,0,0,0,0,0],"split_type":[0,0,0,0,0,0,0,0,0,0,0,0,0,0,0,0,0,0,0,0,0,0,0,0,0,0,0,0,0,0,0],"sum_hessian":[2.5643445E5,1.41119E5,1.1531546E5,7.081442E4,7.030458E4,5.3769758E4,6.1545703E4,3.9495994E3,6.686482E4,4.9369633E4,2.0934943E4,3.453058E4,1.9239178E4,3.6182973E4,2.536273E4,4.5457916E2,3.4950203E3,3.2057928E4,3.480689E4,2.7278486E4,2.2091146E4,4.3508955E3,1.6584049E4,3.8916033E3,3.0638977E4,9.900509E3,9.33867E3,4.3341113E3,3.1848861E4,1.4661813E4,1.0700918E4],"tree_param":{"num_deleted":"0","num_feature":"698","num_nodes":"31","size_leaf_vector":"1"}},{"base_weights":[5.79891E-4,4.6237208E-2,-1.0986667E-1,7.0194595E-2,2.8922688E-4,-7.350666E-2,-1.5987736E-1,8.236875E-2,3.595571E-2,2.0845095E-2,-2.1758415E-2,-4.886598E-2,-1.1141145E-1,-1.302499E-1,-2.0144992E-1,8.699886E-3,4.320074E-3,6.21265E-3,1.551603E-3,3.9920467E-3,7.482864E-4,-1.018153E-3,-5.1539317E-3,-2.643255E-3,-9.357663E-3,-9.499463E-3,-1.530173E-2,-9.544688E-3,-1.5787115E-2,-2.9827887E-2,-1.8901959E-2],"categories":[],"categories_nodes":[],"categories_segments":[],"categories_sizes":[],"default_left":[0,0,0,0,0,0,0,0,0,0,0,0,0,0,0,0,0,0,0,0,0,0,0,0,0,0,0,0,0,0,0],"id":33,"left_children":[1,3,5,7,9,11,13,15,17,19,21,23,25,27,29,-1,-1,-1,-1,-1,-1,-1,-1,-1,-1,-1,-1,-1,-1,-1,-1],"loss_changes":[1.2961836E3,2.001926E2,1.3669409E2,4.982312E1,2.8247705E1,4.0654053E1,3.8954285E1,1.5988037E1,1.6772106E1,8.221254E0,1.0367723E1,2.6461166E1,1.1699234E1,1.7751343E1,1.5792175E1,0E0,0E0,0E0,0E0,0E0,0E0,0E0,0E0,0E0,0E0,0E0,0E0,0E0,0E0,0E0,0E0],"parents":[2147483647,0,0,1,1,2,2,3,3,4,4,5,5,6,6,7,7,8,8,9,9,10,10,11,11,12,12,13,13,14,14],"right_children":[2,4,6,8,10,12,14,16,18,20,22,24,26,28,30,-1,-1,-1,-1,-1,-1,-1,-1,-1,-1,-1,-1,-1,-1,-1,-1],"split_conditions":[4.6950537E-1,-1.8165284E-1,1.11953E0,-4.337981E-1,-2.4302867E-1,3.735185E-1,1.3509986E0,7.66176E-1,-6.1691517E-1,3.042944E-2,4.7819898E-1,9.3806434E-1,1.2738347E0,9.5998853E-1,-2.1345375E0,8.699886E-3,4.320074E-3,6.21265E-3,1.551603E-3,3.9920467E-3,7.482864E-4,-1.018153E-3,-5.1539317E-3,-2.643255E-3,-9.357663E-3,-9.499463E-3,-1.530173E-2,-9.544688E-3,-1.5787115E-2,-2.9827887E-2,-1.8901959E-2],"split_indices":[5,5,5,7,7,7,7,0,5,5,4,4,4,4,0,0,0,0,0,0,0,0,0,0,0,0,0,0,0,0,0],"split_type":[0,0,0,0,0,0,0,0,0,0,0,0,0,0,0,0,0,0,0,0,0,0,0,0,0,0,0,0,0,0,0],"sum_hessian":[2.5703988E5,1.8186117E5,7.5178695E4,1.1953488E5,6.2326293E4,4.3531684E4,3.1647016E4,8.8179805E4,3.1355074E4,3.2254363E4,3.0071932E4,2.6383145E4,1.714854E4,1.84806E4,1.3166416E4,7.885681E4,9.322996E3,1.374897E4,1.7606104E4,1.328593E4,1.8968434E4,2.1655152E4,8.416778E3,1.7569361E4,8.813784E3,1.2298918E4,4.84962E3,8.1791973E3,1.0301402E4,1.4953145E3,1.1671102E4],"tree_param":{"num_deleted":"0","num_feature":"698","num_nodes":"31","size_leaf_vector":"1"}},{"base_weights":[-8.489567E-5,-1.0594558E-1,1.0385608E-1,-1.4072694E-1,-3.3990543E-2,3.881352E-2,1.5096359E-1,-2.8119746E-1,-1.3345972E-1,-1.0285093E-1,-1.1890865E-2,-2.6337667E-3,6.969482E-2,1.1994438E-1,2.1008015E-1,-3.1013433E-2,-2.5217196E-2,-5.968607E-3,-1.4518835E-2,7.515423E-3,-1.1429761E-2,5.935581E-3,-2.9011483E-3,1.296787E-2,-1.5504339E-3,9.8586E-3,4.5759515E-3,7.856111E-3,1.5915921E-2,1.7211024E-2,2.4581293E-2],"categories":[],"categories_nodes":[],"categories_segments":[],"categories_sizes":[],"default_left":[0,0,0,0,0,0,0,0,0,0,0,0,0,0,0,0,0,0,0,0,0,0,0,0,0,0,0,0,0,0,0],"id":34,"left_children":[1,3,5,7,9,11,13,15,17,19,21,23,25,27,29,-1,-1,-1,-1,-1,-1,-1,-1,-1,-1,-1,-1,-1,-1,-1,-1],"loss_changes":[2.8221177E3,3.1800403E2,3.9651587E2,8.740698E1,6.3012432E1,6.957824E1,1.3760559E2,3.460083E0,7.0465576E1,2.0507034E1,3.823995E1,3.952802E1,2.1536789E1,7.987579E1,3.5E1,0E0,0E0,0E0,0E0,0E0,0E0,0E0,0E0,0E0,0E0,0E0,0E0,0E0,0E0,0E0,0E0],"parents":[2147483647,0,0,1,1,2,2,3,3,4,4,5,5,6,6,7,7,8,8,9,9,10,10,11,11,12,12,13,13,14,14],"right_children":[2,4,6,8,10,12,14,16,18,20,22,24,26,28,30,-1,-1,-1,-1,-1,-1,-1,-1,-1,-1,-1,-1,-1,-1,-1,-1],"split_conditions":[1.0331979E-2,-4.390112E-1,5.9040475E-1,2.00001E0,-7.3621845E-1,-2.4302867E-1,1.3597128E0,-9.829903E-1,-6.2486094E-1,-9.188589E-1,-6.586059E-1,-1.1900897E0,-1.2060728E-1,4.223632E-1,1.3133467E0,-3.1013433E-2,-2.5217196E-2,-5.968607E-3,-1.4518835E-2,7.515423E-3,-1.1429761E-2,5.935581E-3,-2.9011483E-3,1.296787E-2,-1.5504339E-3,9.8586E-3,4.5759515E-3,7.856111E-3,1.5915921E-2,1.7211024E-2,2.4581293E-2],"split_indices":[5,7,5,532,5,7,4,5,3,3,3,0,1,7,5,0,0,0,0,0,0,0,0,0,0,0,0,0,0,0,0],"split_type":[0,0,0,0,0,0,0,0,0,0,0,0,0,0,0,0,0,0,0,0,0,0,0,0,0,0,0,0,0,0,0],"sum_hessian":[2.5647806E5,1.2706562E5,1.2941244E5,8.5659086E4,4.140653E4,5.4359156E4,7.505328E4,4.211719E3,8.144737E4,1.0059253E4,3.134728E4,2.320949E4,3.1149666E4,4.922653E4,2.5826752E4,2.104229E3,2.1074902E3,1.1173231E4,7.027413E4,6.074435E2,9.45181E3,6.072864E3,2.5274416E4,2.056732E3,2.1152758E4,1.4112281E4,1.7037385E4,2.3952525E4,2.5274006E4,1.252423E4,1.3302521E4],"tree_param":{"num_deleted":"0","num_feature":"698","num_nodes":"31","size_leaf_vector":"1"}},{"base_weights":[-1.0844445E-3,-6.428242E-2,1.4504683E-1,8.703913E-2,-7.852804E-2,1.0558006E-1,2.324822E-1,1.8209137E-1,6.305866E-2,-9.380223E-2,1.7652381E-2,2.0400754E-1,8.4112E-2,2.1458684E-1,3.05303E-1,2.5209138E-2,1.1855308E-2,4.989336E-3,1.7707592E-2,-2.6175097E-2,-8.842976E-3,-4.3408763E-5,1.0619156E-2,2.8808901E-2,1.7437173E-2,3.8054516E-3,1.1237161E-2,2.8705914E-2,1.9904295E-2,2.8064588E-2,3.968257E-2],"categories":[],"categories_nodes":[],"categories_segments":[],"categories_sizes":[],"default_left":[0,0,0,0,0,0,0,0,0,0,0,0,0,0,0,0,0,0,0,0,0,0,0,0,0,0,0,0,0,0,0],"id":35,"left_children":[1,3,5,7,9,11,13,15,17,19,21,23,25,27,29,-1,-1,-1,-1,-1,-1,-1,-1,-1,-1,-1,-1,-1,-1,-1,-1],"loss_changes":[2.3692168E3,3.8606604E2,2.6724548E2,3.5113197E1,2.4046259E2,1.1274774E2,3.1323364E1,1.3775322E1,1.8464443E1,1.2742688E2,3.592246E1,2.3758667E1,5.7020203E1,2.1727844E1,1.0606079E1,0E0,0E0,0E0,0E0,0E0,0E0,0E0,0E0,0E0,0E0,0E0,0E0,0E0,0E0,0E0,0E0],"parents":[2147483647,0,0,1,1,2,2,3,3,4,4,5,5,6,6,7,7,8,8,9,9,10,10,11,11,12,12,13,13,14,14],"right_children":[2,4,6,8,10,12,14,16,18,20,22,24,26,28,30,-1,-1,-1,-1,-1,-1,-1,-1,-1,-1,-1,-1,-1,-1,-1,-1],"split_conditions":[4.6385002E-1,-1.0726193E0,1.5570428E0,-1.9862134E0,9.011762E-1,-1.0105628E0,2.661001E0,-1.1592207E0,2.804647E-1,2.00001E0,1.5700284E0,-1.9862134E0,7.75888E-1,-1.3533068E0,1.6263087E0,2.5209138E-2,1.1855308E-2,4.989336E-3,1.7707592E-2,-2.6175097E-2,-8.842976E-3,-4.3408763E-5,1.0619156E-2,2.8808901E-2,1.7437173E-2,3.8054516E-3,1.1237161E-2,2.8705914E-2,1.9904295E-2,2.8064588E-2,3.968257E-2],"split_indices":[4,3,4,3,3,3,4,1,4,532,1,3,4,3,1,0,0,0,0,0,0,0,0,0,0,0,0,0,0,0,0],"split_type":[0,0,0,0,0,0,0,0,0,0,0,0,0,0,0,0,0,0,0,0,0,0,0,0,0,0,0,0,0,0,0],"sum_hessian":[2.5654E5,1.7908917E5,7.7450836E4,1.5408634E4,1.6368053E5,5.3365023E4,2.4085814E4,3.102913E3,1.2305721E4,1.4124911E5,2.2431424E4,9.553826E3,4.38112E4,1.933763E4,4.748183E3,1.474972E3,1.627941E3,1.1033183E4,1.2725378E3,4.3768457E3,1.3687227E5,1.86273E4,3.8041235E3,2.4875452E3,7.066281E3,1.6660412E4,2.7150785E4,3.4119907E3,1.592564E4,3.7436677E3,1.0045152E3],"tree_param":{"num_deleted":"0","num_feature":"698","num_nodes":"31","size_leaf_vector":"1"}},{"base_weights":[1.7629572E-3,4.334257E-2,-8.707641E-2,5.798266E-2,7.098289E-3,-5.7264447E-2,-1.3697627E-1,7.729609E-2,4.582637E-2,3.37214E-2,-9.245012E-3,-4.1247975E-2,-1.0060447E-1,-1.1086716E-1,-1.9013754E-1,7.26856E-3,1.3590935E-2,2.4691173E-3,5.763537E-3,-3.679156E-4,4.7409865E-3,-8.637062E-3,-5.2049133E-4,1.4602084E-4,-5.4135392E-3,-7.309863E-3,-1.288228E-2,-1.0103847E-2,-2.3409395E-2,-1.8040603E-2,-2.9834643E-2],"categories":[],"categories_nodes":[],"categories_segments":[],"categories_sizes":[],"default_left":[0,0,0,0,0,0,0,0,0,0,0,0,0,0,0,0,0,0,0,0,0,0,0,0,0,0,0,0,0,0,0],"id":36,"left_children":[1,3,5,7,9,11,13,15,17,19,21,23,25,27,29,-1,-1,-1,-1,-1,-1,-1,-1,-1,-1,-1,-1,-1,-1,-1,-1],"loss_changes":[9.489564E2,9.2855225E1,1.21832214E2,2.9260834E1,2.19078E1,3.5587433E1,4.2494263E1,1.3001343E1,1.9091797E1,9.805061E0,9.720871E0,2.06068E1,1.0728607E1,2.485884E1,1.0568573E1,0E0,0E0,0E0,0E0,0E0,0E0,0E0,0E0,0E0,0E0,0E0,0E0,0E0,0E0,0E0,0E0],"parents":[2147483647,0,0,1,1,2,2,3,3,4,4,5,5,6,6,7,7,8,8,9,9,10,10,11,11,12,12,13,13,14,14],"right_children":[2,4,6,8,10,12,14,16,18,20,22,24,26,28,30,-1,-1,-1,-1,-1,-1,-1,-1,-1,-1,-1,-1,-1,-1,-1,-1],"split_conditions":[3.883697E-1,-1.316522E-1,1.1386393E0,-9.160509E-1,-3.9628223E-1,1.1202095E0,1.7206794E0,-1.9119552E-1,-5.9272003E-1,-4.4009197E-1,-1.3900942E0,-2.9876933E-1,3.109891E-1,4.0354037E0,3.056766E0,7.26856E-3,1.3590935E-2,2.4691173E-3,5.763537E-3,-3.679156E-4,4.7409865E-3,-8.637062E-3,-5.2049133E-4,1.4602084E-4,-5.4135392E-3,-7.309863E-3,-1.288228E-2,-1.0103847E-2,-2.3409395E-2,-1.8040603E-2,-2.9834643E-2],"split_indices":[5,5,5,5,7,4,4,4,4,3,3,7,7,7,4,0,0,0,0,0,0,0,0,0,0,0,0,0,0,0,0],"split_type":[0,0,0,0,0,0,0,0,0,0,0,0,0,0,0,0,0,0,0,0,0,0,0,0,0,0,0,0,0,0,0],"sum_hessian":[2.5689578E5,1.7499372E5,8.1902055E4,1.2464535E5,5.034837E4,5.1272297E4,3.0629754E4,4.8146582E4,7.649877E4,1.9150803E4,3.1197566E4,3.743865E4,1.3833649E4,2.0543365E4,1.0086387E4,4.463764E4,3.508942E3,2.7422432E4,4.907634E4,5.131341E3,1.4019462E4,1.5518738E3,2.9645693E4,8.678727E3,2.8759922E4,7.0070825E3,6.826567E3,1.902753E4,1.515836E3,9.256585E3,8.298018E2],"tree_param":{"num_deleted":"0","num_feature":"698","num_nodes":"31","size_leaf_vector":"1"}},{"base_weights":[5.7305984E-4,7.090505E-2,-1.0942343E-1,8.9027315E-2,-4.30314E-2,-4.9196094E-2,-1.8898226E-1,1.20915696E-1,5.1242396E-2,-9.268701E-3,-9.468689E-2,-1.4690745E-1,-3.4624837E-2,-1.5987816E-1,-2.4035265E-1,4.257029E-3,1.2865253E-2,-8.89178E-3,5.7837185E-3,-7.687331E-3,7.503456E-4,-3.9736102E-3,-1.268473E-2,-1.3009454E-2,-2.8873939E-2,-1.987783E-3,-1.1995806E-2,-1.30833285E-2,-1.9253638E-2,-3.2151427E-2,-2.296634E-2],"categories":[],"categories_nodes":[],"categories_segments":[],"categories_sizes":[],"default_left":[0,0,0,0,0,0,0,0,0,0,0,0,0,0,0,0,0,0,0,0,0,0,0,0,0,0,0,0,0,0,0],"id":37,"left_children":[1,3,5,7,9,11,13,15,17,19,21,23,25,27,29,-1,-1,-1,-1,-1,-1,-1,-1,-1,-1,-1,-1,-1,-1,-1,-1],"loss_changes":[1.9830103E3,3.2284033E2,4.7902197E2,1.6253198E2,3.742056E1,8.1008606E1,6.435986E1,4.4338013E1,5.7075195E1,1.4714731E1,1.4982956E1,1.7570007E1,6.2311146E1,2.6058594E1,1.3438965E1,0E0,0E0,0E0,0E0,0E0,0E0,0E0,0E0,0E0,0E0,0E0,0E0,0E0,0E0,0E0,0E0],"parents":[2147483647,0,0,1,1,2,2,3,3,4,4,5,5,6,6,7,7,8,8,9,9,10,10,11,11,12,12,13,13,14,14],"right_children":[2,4,6,8,10,12,14,16,18,20,22,24,26,28,30,-1,-1,-1,-1,-1,-1,-1,-1,-1,-1,-1,-1,-1,-1,-1,-1],"split_conditions":[-1.9106252E-1,4.0871075E-1,5.5392593E-1,-5.9602445E-1,9.1583514E-1,-1.0655857E0,1.5953362E0,-8.3006686E-1,2.00001E0,-6.034478E-1,-5.0534636E-1,2.2024968E0,1.1095974E0,5.520335E-1,-1.8974078E0,4.257029E-3,1.2865253E-2,-8.89178E-3,5.7837185E-3,-7.687331E-3,7.503456E-4,-3.9736102E-3,-1.268473E-2,-1.3009454E-2,-2.8873939E-2,-1.987783E-3,-1.1995806E-2,-1.30833285E-2,-1.9253638E-2,-3.2151427E-2,-2.296634E-2],"split_indices":[7,4,4,7,4,0,4,0,32,3,7,7,0,7,3,0,0,0,0,0,0,0,0,0,0,0,0,0,0,0,0],"split_type":[0,0,0,0,0,0,0,0,0,0,0,0,0,0,0,0,0,0,0,0,0,0,0,0,0,0,0,0,0,0,0],"sum_hessian":[2.5632433E5,1.5635253E5,9.997179E4,1.3489664E5,2.145589E4,5.6899535E4,4.3072254E4,7.3155375E4,6.174127E4,1.2975873E4,8.480018E3,7.3828486E3,4.9516684E4,2.7497527E4,1.5574728E4,6.575585E3,6.657979E4,2.7739324E3,5.8967336E4,2.578592E3,1.039728E4,3.1315457E3,5.348472E3,6.602141E3,7.8070746E2,4.2221363E4,7.2953223E3,1.4556536E4,1.2940992E4,1.8091415E3,1.3765586E4],"tree_param":{"num_deleted":"0","num_feature":"698","num_nodes":"31","size_leaf_vector":"1"}},{"base_weights":[8.818278E-4,4.1577756E-2,-1.0449797E-1,6.651392E-2,5.0183255E-3,-6.765115E-2,-1.4741887E-1,7.6786615E-2,3.46726E-2,5.1181093E-2,-6.66021E-3,-3.9778307E-2,-9.616442E-2,-1.21189855E-1,-1.8638928E-1,-5.064056E-4,7.866036E-3,5.2464183E-2,3.4124746E-3,1.7595492E-2,4.7398307E-3,2.807515E-4,-3.8123336E-3,1.0754506E-3,-5.5252253E-3,-6.8633663E-3,-1.1221678E-2,-8.606496E-3,-1.4983967E-2,-1.638281E-2,-2.2558762E-2],"categories":[],"categories_nodes":[],"categories_segments":[],"categories_sizes":[],"default_left":[0,0,0,0,0,0,0,0,0,0,0,0,0,0,0,0,0,0,0,0,0,0,0,0,0,0,0,0,0,0,0],"id":38,"left_children":[1,3,5,7,9,11,13,15,17,19,21,23,25,27,29,-1,-1,-1,-1,-1,-1,-1,-1,-1,-1,-1,-1,-1,-1,-1,-1],"loss_changes":[1.1015597E3,1.6893015E2,1.1316266E2,3.6031036E1,4.0509296E1,3.0599136E1,3.3764587E1,1.2774414E1,7.1957245E0,7.1524353E0,1.7864098E1,1.5227882E1,8.404022E0,1.987207E1,1.1721222E1,0E0,0E0,0E0,0E0,0E0,0E0,0E0,0E0,0E0,0E0,0E0,0E0,0E0,0E0,0E0,0E0],"parents":[2147483647,0,0,1,1,2,2,3,3,4,4,5,5,6,6,7,7,8,8,9,9,10,10,11,11,12,12,13,13,14,14],"right_children":[2,4,6,8,10,12,14,16,18,20,22,24,26,28,30,-1,-1,-1,-1,-1,-1,-1,-1,-1,-1,-1,-1,-1,-1,-1,-1],"split_conditions":[5.04519E-1,-4.337981E-1,1.0811671E0,-2.8209174E-1,-5.753803E-1,6.516734E-1,1.3509986E0,-1.2489427E0,2.00001E0,2.00001E0,4.7819898E-1,-2.6459906E-1,3.279635E-2,9.5998853E-1,1.7206794E0,-5.064056E-4,7.866036E-3,5.2464183E-2,3.4124746E-3,1.7595492E-2,4.7398307E-3,2.807515E-4,-3.8123336E-3,1.0754506E-3,-5.5252253E-3,-6.8633663E-3,-1.1221678E-2,-8.606496E-3,-1.4983967E-2,-1.638281E-2,-2.2558762E-2],"split_indices":[5,7,5,5,5,4,7,0,340,552,4,7,7,4,4,0,0,0,0,0,0,0,0,0,0,0,0,0,0,0,0],"split_type":[0,0,0,0,0,0,0,0,0,0,0,0,0,0,0,0,0,0,0,0,0,0,0,0,0,0,0,0,0,0,0],"sum_hessian":[2.5685988E5,1.853005E5,7.1559375E4,1.1016157E5,7.513894E4,3.85056E4,3.3053773E4,8.328926E4,2.6872312E4,1.5170356E4,5.996858E4,1.947268E4,1.9032922E4,1.9759057E4,1.3294718E4,1.8639688E3,8.142529E4,2.8944925E1,2.6843367E4,4.450497E2,1.4725307E4,4.609793E4,1.38706455E4,4.5650464E3,1.4907633E4,7.0120713E3,1.2020851E4,8.878255E3,1.0880802E4,8.441349E3,4.8533696E3],"tree_param":{"num_deleted":"0","num_feature":"698","num_nodes":"31","size_leaf_vector":"1"}},{"base_weights":[-6.118239E-4,-8.797687E-2,9.960309E-2,-1.0899111E-1,1.1550101E-2,4.7245413E-2,1.5517545E-1,-1.5068516E-1,-7.673783E-2,-1.7581891E-2,7.968874E-2,1.617533E-1,3.0159079E-2,1.2339813E-1,1.8858537E-1,-7.897757E-3,-1.6458197E-2,1.2869105E-2,-8.5539175E-3,-6.2957825E-3,1.7330928E-3,1.8574433E-2,5.511896E-3,2.7766963E-2,1.3595116E-2,2.0688258E-3,1.2375651E-2,1.7183533E-2,9.894486E-3,1.8016374E-2,3.0906608E-2],"categories":[],"categories_nodes":[],"categories_segments":[],"categories_sizes":[],"default_left":[0,0,0,0,0,0,0,0,0,0,0,0,0,0,0,0,0,0,0,0,0,0,0,0,0,0,0,0,0,0,0],"id":39,"left_children":[1,3,5,7,9,11,13,15,17,19,21,23,25,27,29,-1,-1,-1,-1,-1,-1,-1,-1,-1,-1,-1,-1,-1,-1,-1,-1],"loss_changes":[2.2468772E3,2.8675525E2,3.4776868E2,1.5222131E2,4.7448895E1,1.2040762E2,6.153528E1,4.9189087E1,1.1541922E2,2.6528397E1,1.864428E1,2.3861649E1,4.7470505E1,3.5184937E1,2.8621338E1,0E0,0E0,0E0,0E0,0E0,0E0,0E0,0E0,0E0,0E0,0E0,0E0,0E0,0E0,0E0,0E0],"parents":[2147483647,0,0,1,1,2,2,3,3,4,4,5,5,6,6,7,7,8,8,9,9,10,10,11,11,12,12,13,13,14,14],"right_children":[2,4,6,8,10,12,14,16,18,20,22,24,26,28,30,-1,-1,-1,-1,-1,-1,-1,-1,-1,-1,-1,-1,-1,-1,-1,-1],"split_conditions":[-2.2879367E-1,3.174873E-1,4.6385002E-1,-6.522796E-1,1.0051273E0,-1.0885717E0,6.6014236E-1,-6.020361E-1,2.00001E0,-5.3969747E-1,-8.194258E-1,-1.1320198E0,1.4788632E0,-4.6463922E-1,2.8994806E0,-7.897757E-3,-1.6458197E-2,1.2869105E-2,-8.5539175E-3,-6.2957825E-3,1.7330928E-3,1.8574433E-2,5.511896E-3,2.7766963E-2,1.3595116E-2,2.0688258E-3,1.2375651E-2,1.7183533E-2,9.894486E-3,1.8016374E-2,3.0906608E-2],"split_indices":[7,4,4,7,4,0,7,0,32,7,1,1,0,1,4,0,0,0,0,0,0,0,0,0,0,0,0,0,0,0,0],"split_type":[0,0,0,0,0,0,0,0,0,0,0,0,0,0,0,0,0,0,0,0,0,0,0,0,0,0,0,0,0,0,0],"sum_hessian":[2.5662905E5,1.3710456E5,1.1952448E5,1.1320272E5,2.3901848E4,6.154321E4,5.798127E4,4.9373535E4,6.3829188E4,1.6743902E4,7.1579453E3,7.9897373E3,5.3553473E4,2.9719104E4,2.8262166E4,8.0162656E3,4.135727E4,2.6217722E3,6.1207414E4,7.280581E3,9.463321E3,1.345129E3,5.8128164E3,1.452883E3,6.5368545E3,4.8633613E4,4.919857E3,9.968137E3,1.9750967E4,2.6418033E4,1.844133E3],"tree_param":{"num_deleted":"0","num_feature":"698","num_nodes":"31","size_leaf_vector":"1"}},{"base_weights":[-1.5269069E-3,-1.1472407E-1,1.12362914E-1,-1.588636E-1,-6.2133398E-2,3.7750196E-2,1.6264556E-1,-2.8487185E-1,-1.5271302E-1,-9.821408E-2,-2.0239042E-2,-6.301908E-3,6.017973E-2,1.1627212E-1,1.9468318E-1,-3.13894E-2,-2.2841288E-2,-1.7868198E-2,-1.2951538E-2,-1.3127977E-2,-8.121245E-3,2.8164163E-3,-3.3087798E-3,5.7642735E-3,-2.037882E-3,4.9431412E-3,1.0383263E-2,9.952544E-3,1.7659841E-2,1.859588E-2,3.5759892E-2],"categories":[],"categories_nodes":[],"categories_segments":[],"categories_sizes":[],"default_left":[0,0,0,0,0,0,0,0,0,0,0,0,0,0,0,0,0,0,0,0,0,0,0,0,0,0,0,0,0,0,0],"id":40,"left_children":[1,3,5,7,9,11,13,15,17,19,21,23,25,27,29,-1,-1,-1,-1,-1,-1,-1,-1,-1,-1,-1,-1,-1,-1,-1,-1],"loss_changes":[3.3014143E3,2.981223E2,4.7890393E2,5.407312E1,8.858711E1,5.0780365E1,1.1327405E2,5.2511597E0,4.0084595E1,1.769101E1,1.6867416E1,1.560958E1,1.5972984E1,3.14628E1,6.40343E1,0E0,0E0,0E0,0E0,0E0,0E0,0E0,0E0,0E0,0E0,0E0,0E0,0E0,0E0,0E0,0E0],"parents":[2147483647,0,0,1,1,2,2,3,3,4,4,5,5,6,6,7,7,8,8,9,9,10,10,11,11,12,12,13,13,14,14],"right_children":[2,4,6,8,10,12,14,16,18,20,22,24,26,28,30,-1,-1,-1,-1,-1,-1,-1,-1,-1,-1,-1,-1,-1,-1,-1,-1],"split_conditions":[5.0951306E-2,-5.6530875E-1,6.0308033E-1,2.00001E0,-4.1293675E-1,-3.3135542E-1,3.8987252E-1,-9.5528E-1,-1.0394534E0,-6.8152845E-1,-6.4714384E-1,-7.1836424E-1,7.965844E-1,9.14824E-1,4.3754306E0,-3.13894E-2,-2.2841288E-2,-1.7868198E-2,-1.2951538E-2,-1.3127977E-2,-8.121245E-3,2.8164163E-3,-3.3087798E-3,5.7642735E-3,-2.037882E-3,4.9431412E-3,1.0383263E-2,9.952544E-3,1.7659841E-2,1.859588E-2,3.5759892E-2],"split_indices":[5,5,5,532,7,7,7,5,5,7,3,3,0,0,7,0,0,0,0,0,0,0,0,0,0,0,0,0,0,0,0],"split_type":[0,0,0,0,0,0,0,0,0,0,0,0,0,0,0,0,0,0,0,0,0,0,0,0,0,0,0,0,0,0,0],"sum_hessian":[2.560803E5,1.28430695E5,1.276496E5,6.982462E4,5.8606074E4,5.1392203E4,7.62574E4,3.247485E3,6.657713E4,3.1487096E4,2.7118979E4,1.7338914E4,3.405329E4,3.1159559E4,4.5097844E4,2.1419026E3,1.1055823E3,3.1409064E4,3.516807E4,1.0689963E4,2.0797133E4,5.6884683E3,2.143051E4,3.127787E3,1.4211126E4,2.7326924E4,6.7263647E3,2.4391178E4,6.7683823E3,4.280757E4,2.2902737E3],"tree_param":{"num_deleted":"0","num_feature":"698","num_nodes":"31","size_leaf_vector":"1"}},{"base_weights":[7.745725E-5,4.1255355E-2,-6.0538154E-2,5.4288164E-2,1.2455908E-2,-3.9188344E-2,-1.1373635E-1,2.8277608E-4,5.8607467E-2,-8.6497985E-2,1.8217562E-2,-1.01501696E-1,-2.977277E-2,-2.1282876E-1,-1.0366867E-1,-8.931605E-3,9.546346E-4,6.1724274E-3,-5.037526E-4,-8.075232E-3,-3.7326764E-2,-1.954296E-3,3.1226026E-3,-1.9135237E-2,-8.918926E-3,-1.2893143E-2,-2.6224973E-3,-1.9310627E-2,-3.1093871E-2,-9.52953E-3,-1.8904181E-2],"categories":[],"categories_nodes":[],"categories_segments":[],"categories_sizes":[],"default_left":[0,0,0,0,0,0,0,0,0,0,0,0,0,0,0,0,0,0,0,0,0,0,0,0,0,0,0,0,0,0,0],"id":41,"left_children":[1,3,5,7,9,11,13,15,17,19,21,23,25,27,29,-1,-1,-1,-1,-1,-1,-1,-1,-1,-1,-1,-1,-1,-1,-1,-1],"loss_changes":[6.412248E2,5.741736E1,1.1802667E2,2.4566742E1,2.7175026E1,4.3508408E1,2.9669037E1,6.475192E0,1.9344788E1,4.291048E0,2.2124336E1,1.0751907E1,2.2661919E1,5.2493668E0,1.929654E1,0E0,0E0,0E0,0E0,0E0,0E0,0E0,0E0,0E0,0E0,0E0,0E0,0E0,0E0,0E0,0E0],"parents":[2147483647,0,0,1,1,2,2,3,3,4,4,5,5,6,6,7,7,8,8,9,9,10,10,11,11,12,12,13,13,14,14],"right_children":[2,4,6,8,10,12,14,16,18,20,22,24,26,28,30,-1,-1,-1,-1,-1,-1,-1,-1,-1,-1,-1,-1,-1,-1,-1,-1],"split_conditions":[-1.9873515E-1,-4.827004E-1,9.327539E-1,-8.401062E-1,2.00001E0,-1.1320198E0,-1.9212394E0,-1.3493803E0,1.1912855E0,1.4988607E0,-5.1401657E-1,-1.9862134E0,2.00001E0,4.0354037E0,2.1383703E0,-8.931605E-3,9.546346E-4,6.1724274E-3,-5.037526E-4,-8.075232E-3,-3.7326764E-2,-1.954296E-3,3.1226026E-3,-1.9135237E-2,-8.918926E-3,-1.2893143E-2,-2.6224973E-3,-1.9310627E-2,-3.1093871E-2,-9.52953E-3,-1.8904181E-2],"split_indices":[7,7,7,3,32,1,0,0,0,6,3,3,32,7,0,0,0,0,0,0,0,0,0,0,0,0,0,0,0,0,0],"split_type":[0,0,0,0,0,0,0,0,0,0,0,0,0,0,0,0,0,0,0,0,0,0,0,0,0,0,0,0,0,0,0],"sum_hessian":[2.5689655E5,1.5297597E5,1.0392058E5,1.05315805E5,4.766016E4,7.415999E4,2.9760586E4,7.7993613E3,9.7516445E4,2.6215845E3,4.5038574E4,9.733405E3,6.442659E4,2.7429202E3,2.7017666E4,7.300033E2,7.069358E3,9.296387E4,4.5525767E3,2.571347E3,5.023753E1,1.1540041E4,3.3498535E4,1.1712925E3,8.562113E3,2.2242727E3,6.2202316E4,2.2862888E3,4.5663147E2,2.4606396E4,2.4112688E3],"tree_param":{"num_deleted":"0","num_feature":"698","num_nodes":"31","size_leaf_vector":"1"}},{"base_weights":[-5.716479E-4,8.04297E-2,-1.0914114E-1,1.1871014E-1,4.0146008E-2,-7.321183E-2,-1.8747224E-1,2.4960333E-1,1.1099988E-1,7.890379E-2,1.0536376E-2,-3.271906E-2,-1.1553895E-1,-1.4078428E-1,-2.2740078E-1,-5.636907E-3,2.5241632E-2,8.98904E-3,1.4206372E-2,3.3911304E-3,9.190883E-3,2.522295E-3,-3.7445587E-3,-1.1810357E-2,-2.2341374E-3,-1.0640719E-2,-2.2430858E-2,-5.000018E-3,-1.5113639E-2,-2.0832546E-2,-2.7043492E-2],"categories":[],"categories_nodes":[],"categories_segments":[],"categories_sizes":[],"default_left":[0,0,0,0,0,0,0,0,0,0,0,0,0,0,0,0,0,0,0,0,0,0,0,0,0,0,0,0,0,0,0],"id":42,"left_children":[1,3,5,7,9,11,13,15,17,19,21,23,25,27,29,-1,-1,-1,-1,-1,-1,-1,-1,-1,-1,-1,-1,-1,-1,-1,-1],"loss_changes":[2.253468E3,2.2630005E2,3.0813147E2,7.591321E1,8.2061E1,1.2864801E2,6.4148926E1,3.6163025E0,4.658618E1,1.8117905E1,2.8568298E1,3.3991146E1,3.642807E1,1.49104E1,1.5175964E1,0E0,0E0,0E0,0E0,0E0,0E0,0E0,0E0,0E0,0E0,0E0,0E0,0E0,0E0,0E0,0E0],"parents":[2147483647,0,0,1,1,2,2,3,3,4,4,5,5,6,6,7,7,8,8,9,9,10,10,11,11,12,12,13,13,14,14],"right_children":[2,4,6,8,10,12,14,16,18,20,22,24,26,28,30,-1,-1,-1,-1,-1,-1,-1,-1,-1,-1,-1,-1,-1,-1,-1,-1],"split_conditions":[5.0951306E-2,-6.4852965E-1,1.0051273E0,2.00001E0,-5.3146446E-1,5.5073228E-2,1.0263472E0,-2.2017531E0,-6.700546E-1,-6.700546E-1,5.5073228E-2,-1.1629839E0,2.839616E0,-5.0534636E-1,2.252318E0,-5.636907E-3,2.5241632E-2,8.98904E-3,1.4206372E-2,3.3911304E-3,9.190883E-3,2.522295E-3,-3.7445587E-3,-1.1810357E-2,-2.2341374E-3,-1.0640719E-2,-2.2430858E-2,-5.000018E-3,-1.5113639E-2,-2.0832546E-2,-2.7043492E-2],"split_indices":[5,5,4,532,7,7,5,5,4,4,7,0,7,7,4,0,0,0,0,0,0,0,0,0,0,0,0,0,